213 100
zzhcurw 0.003841 -0.015580 0.013453 -0.002328 0.005804 0.004025 0.017018 -0.009297 0.023188 0.018359 0.001084 0.018426 0.021134 0.031116 -0.008330 -0.011261 -0.008285 0.005385 -0.013467 -0.016176 -0.022257 -0.002553 0.003789 -0.032008 -0.002407 -0.011928 0.007340 -0.011582 -0.021170 -0.015071 -0.001255 0.000927 0.049472 -0.014320 -0.026855 -0.012111 0.000700 0.001573 -0.022194 -0.005999 0.002032 -0.028392 0.014774 -0.001035 -0.015052 -0.031666 0.002649 0.012612 0.005035 -0.014617 -0.005163 -0.023901 -0.021771 -0.012471 0.014613 0.002379 -0.029675 -0.023511 -0.013724 0.028865 -0.027205 -0.012034 -0.015851 -0.004294 -0.005769 -0.012944 0.001402 0.005066 -0.006586 -0.007465 -0.009305 0.002426 -0.017405 0.022618 0.009289 0.006772 0.012065 -0.013374 -0.006283 0.011109 -0.013852 -0.006637 -0.016721 -0.004061 -0.000279 -0.013551 -0.004362 -0.010168 -0.000090 -0.007208 0.006155 -0.021946 -0.013476 -0.007134 0.010141 0.008614 0.004362 0.001475 0.021628 -0.002492 
zziwa -0.027318 -0.010013 0.008300 -0.001446 -0.001567 0.002743 0.012598 -0.004583 -0.000222 -0.009730 -0.004128 0.008130 0.000380 0.007573 0.001001 -0.002370 -0.016595 -0.011759 -0.010034 0.009432 0.010093 0.002180 -0.003550 -0.001401 0.008747 0.014089 -0.001219 0.008636 0.010898 -0.014858 0.013581 -0.012749 0.013300 -0.008057 0.003026 0.013315 0.005040 0.010965 -0.014034 0.010294 0.011981 -0.013061 0.000809 0.004899 -0.027366 0.000012 0.001155 -0.000004 0.012743 -0.015720 0.004239 -0.001915 -0.005690 -0.006718 -0.020754 0.004759 0.003577 -0.012540 0.012421 0.014605 -0.014896 0.002174 0.014013 0.006028 -0.001641 -0.000372 0.009092 0.011981 -0.008906 -0.002778 -0.003523 -0.008121 0.004748 -0.017170 0.009270 -0.006970 -0.005177 -0.009304 -0.001802 -0.003229 0.017898 0.006175 0.019661 0.005056 0.004907 0.012636 0.006644 -0.020961 0.000920 0.011821 -0.009150 -0.005372 -0.001095 0.007361 -0.013609 -0.015121 0.013796 0.017687 0.020851 -0.000751 
zzs 0.013314 0.011540 0.020234 0.019842 -0.018266 0.026185 0.023326 -0.019240 0.029068 -0.003875 -0.011340 0.028284 -0.000829 -0.040482 0.020454 -0.004779 -0.024092 0.019970 -0.005838 -0.013586 0.007467 -0.051998 0.010506 -0.005241 0.012262 -0.034558 -0.018864 -0.003462 -0.005317 -0.006011 0.003193 0.001526 0.012465 -0.002685 -0.021050 -0.039032 -0.001120 -0.007767 0.031686 -0.013991 -0.025624 -0.010440 0.001228 -0.020769 0.012226 0.018858 -0.029279 0.012094 -0.000093 0.020568 0.003374 -0.022514 0.012828 0.007525 0.006627 -0.033571 0.004666 -0.033609 0.016728 0.007550 0.018654 0.006161 0.007857 0.028542 -0.008378 0.014755 -0.019233 -0.000156 0.004846 -0.014038 0.015963 -0.004799 0.001921 -0.001739 -0.010591 0.005021 0.010384 0.010934 0.009816 0.042462 0.008301 -0.018050 0.021017 -0.028142 -0.007743 -0.011312 0.015161 0.015676 0.010952 -0.002945 -0.004516 0.002568 -0.014775 -0.007043 -0.017675 -0.008007 -0.012897 -0.004707 -0.013372 -0.007549 
zzt -0.013328 0.008340 0.000300 -0.016959 -0.009781 0.022669 0.003972 -0.027761 -0.026152 0.027774 0.020469 0.012929 0.007944 0.006898 -0.005923 -0.000713 0.010569 0.011852 0.007290 -0.001286 0.027549 -0.023840 -0.004168 -0.007617 0.022982 -0.013237 -0.013719 0.001800 -0.035736 0.004086 0.029684 0.020497 0.005526 -0.019239 -0.011115 -0.004694 0.019721 0.016837 0.020291 0.009170 -0.008896 0.010306 -0.009395 -0.004863 0.026482 0.012310 0.006166 -0.017097 -0.015138 -0.005044 0.002142 -0.008413 -0.029293 -0.014104 -0.008544 -0.038666 -0.031851 0.000127 -0.020718 0.014094 0.003673 -0.009808 -0.020413 0.005389 -0.013995 -0.006238 -0.001732 -0.016872 -0.035241 -0.016849 0.014503 -0.045698 -0.006933 -0.003714 0.000791 0.009599 0.022859 0.014509 0.025629 0.035004 0.002643 0.001590 0.019304 -0.019038 -0.026892 0.016563 0.008075 0.022091 -0.005442 0.009460 -0.010643 -0.010384 0.014967 0.009633 0.014960 -0.012181 0.001604 0.010664 -0.007100 -0.023048 
zzyzx -0.005720 0.005835 -0.006544 0.004618 -0.012004 -0.014332 -0.017701 -0.008105 0.008019 0.000692 -0.000161 0.006194 -0.013106 0.000424 0.021529 0.003297 0.005616 0.024302 -0.000000 0.000153 -0.000978 -0.000283 0.017364 -0.016054 -0.009393 0.005123 0.005426 -0.006492 0.003553 -0.004430 0.005170 -0.002802 -0.002125 0.006816 -0.014582 -0.005610 0.002487 0.007458 -0.019328 0.013393 0.016301 -0.001235 0.010337 0.016091 0.013230 0.001093 0.025290 0.015476 -0.002679 -0.011543 0.002003 -0.000424 -0.005940 0.008530 0.007349 -0.007501 -0.012260 0.000184 -0.000902 0.002466 -0.010004 0.004571 0.000974 -0.009851 0.000616 0.010904 0.013822 -0.000669 0.020916 0.014722 -0.004099 -0.001455 -0.013336 0.003611 -0.003070 0.000644 -0.007152 -0.009786 0.004175 0.007031 -0.002303 0.001453 0.015364 -0.004551 0.009190 -0.007817 0.001956 0.011413 0.006232 0.007618 -0.001197 0.007785 0.017571 0.003181 -0.001019 -0.002470 0.001184 0.011125 -0.010414 0.010180 
zzyzzyxx -0.013183 -0.006217 0.025413 0.003164 0.015682 0.003736 0.004915 -0.012557 0.023257 -0.013264 -0.001376 0.001444 -0.006936 0.029031 -0.006773 -0.001603 0.036432 -0.005563 -0.002500 0.002445 -0.003805 0.004613 -0.007419 -0.015156 -0.006244 0.009338 0.011303 -0.004406 -0.002666 -0.006210 -0.000137 0.001606 -0.005443 -0.000624 -0.009873 0.002806 -0.003501 0.000811 -0.000122 -0.010083 -0.007167 -0.021200 0.010762 -0.020531 0.015854 -0.022455 0.004761 -0.009406 0.015918 -0.002965 0.011547 0.003554 0.016029 0.001738 -0.016649 -0.001095 -0.009923 -0.009996 -0.023695 -0.012778 0.009756 0.013932 0.003891 -0.015195 0.001685 0.001135 0.019336 0.004506 0.020759 0.026081 0.006158 -0.005980 -0.018713 0.023916 -0.005919 -0.001148 -0.001264 0.018276 -0.004167 -0.000019 -0.007904 0.002957 0.023670 -0.000148 0.002628 0.005691 0.008499 -0.020364 0.007139 -0.011550 0.001919 0.007085 -0.005287 -0.004199 0.001097 -0.006426 -0.005411 -0.003788 -0.011828 0.003600 
zzzap -0.007235 0.020394 0.005649 -0.006775 -0.001360 -0.007577 -0.008782 0.001811 -0.020410 -0.002286 0.016286 -0.006569 0.013185 -0.006826 0.006107 0.008181 0.008746 -0.001332 0.016460 0.004406 0.002134 -0.015314 -0.009378 0.003281 0.010363 0.008465 0.017239 0.000447 0.018918 0.001206 -0.001852 -0.030376 -0.011365 -0.010237 -0.007238 -0.004178 0.002029 -0.033053 0.000311 0.017249 0.009508 0.008596 -0.000453 0.003401 -0.003862 0.005770 -0.016624 -0.006731 0.007569 -0.024407 0.006435 -0.000665 0.002752 -0.015210 0.013903 0.001514 0.006489 0.004365 -0.015919 0.007326 -0.003959 0.023316 0.003108 -0.014600 -0.027221 -0.011959 0.001838 0.001718 -0.018524 -0.009580 -0.005563 0.008859 0.006187 -0.023849 -0.030034 -0.012763 -0.005520 -0.019969 -0.001069 0.013423 -0.015633 -0.016153 -0.009668 0.018710 0.001347 -0.005437 0.005325 -0.031022 -0.004050 0.022098 0.003344 -0.005586 0.005641 -0.015321 0.004152 0.006473 0.018420 0.004099 0.029578 -0.002514 
aaa -0.047147 -0.009156 0.015597 0.000328 0.038408 0.011976 0.014024 -0.026487 0.026787 0.046577 0.039044 -0.007278 -0.053185 -0.016196 0.018605 -0.051370 -0.016257 -0.016983 -0.062016 -0.000110 -0.026070 0.031988 -0.018935 -0.065579 -0.012027 -0.010224 -0.003288 0.047934 -0.014530 -0.001491 0.008571 -0.030149 -0.004625 0.013913 0.048743 -0.065299 0.051743 0.070531 0.024282 -0.059978 -0.027645 -0.039399 -0.008390 0.002538 0.006480 0.003737 -0.008788 0.013067 -0.000119 0.038671 -0.013008 0.010564 -0.053778 0.060962 -0.001364 -0.014260 0.027478 -0.009577 -0.018124 -0.018567 -0.021861 -0.013697 -0.006334 0.002701 0.016816 0.033036 -0.012651 -0.050159 0.089024 -0.070057 0.040357 -0.011105 0.060652 -0.006939 0.032865 0.043448 0.059461 -0.031449 -0.042646 -0.060010 0.030967 0.030969 -0.012975 -0.073722 0.014417 0.022440 -0.011708 0.005459 -0.037067 -0.020784 0.013959 0.019739 -0.042921 -0.004279 0.003428 -0.035524 -0.025854 0.013059 -0.032812 -0.008540 
aaaa -0.014154 -0.001087 -0.006209 0.011151 -0.008276 0.006368 -0.015795 0.005967 -0.007882 0.004888 -0.012909 0.001731 -0.014889 -0.006103 0.011255 0.008500 -0.002214 -0.006284 -0.004081 -0.003994 -0.004244 -0.010721 -0.013027 0.007752 0.002468 0.022399 0.001973 0.004411 0.012809 0.013783 -0.006988 0.013157 -0.010176 -0.025732 -0.008696 0.000320 0.004817 0.005499 -0.000509 -0.005923 0.002327 -0.008927 -0.014388 -0.005594 -0.017851 0.001245 -0.009425 -0.022988 -0.003981 0.020348 0.011711 -0.000670 0.007558 -0.002892 0.000518 0.008100 -0.012708 -0.006869 0.013941 0.016877 -0.016689 0.006309 -0.008850 -0.003696 -0.022079 -0.005439 0.010154 -0.009505 -0.022680 0.013248 0.002406 0.000386 0.000922 -0.002270 -0.007503 -0.004519 -0.019638 0.002431 -0.006320 -0.012274 -0.000437 0.008125 0.012509 0.029613 0.002295 0.024043 -0.023097 -0.007520 0.008265 0.009875 0.014700 0.006855 0.009255 0.009306 -0.013266 0.007299 -0.005302 -0.003313 0.008306 0.014778 
aaaaa -0.001090 0.005343 -0.009129 0.003737 0.021334 -0.016358 0.002981 -0.011631 0.013057 -0.023438 -0.001787 -0.001477 0.000633 0.006224 0.010891 0.004425 -0.009083 0.004225 -0.008943 0.009638 0.002935 -0.008138 0.011888 0.011297 -0.011010 -0.005702 0.006326 0.016427 -0.003193 0.001949 -0.004045 -0.002083 -0.003957 0.009028 0.003796 0.004838 0.005126 -0.019580 -0.001882 0.008617 0.010396 0.004821 -0.002283 -0.005699 0.003562 0.005998 0.002175 -0.003112 -0.009877 0.010916 -0.004674 0.003138 -0.003664 0.016324 0.009552 -0.005569 0.004718 0.000245 0.000857 0.013498 0.003144 -0.003920 -0.000622 0.014884 0.004710 0.005029 -0.003645 -0.019695 0.007088 0.004731 -0.005784 -0.008679 0.009557 0.006950 -0.006084 0.024767 -0.007609 -0.008533 0.007040 -0.008335 -0.000334 0.003284 0.011687 0.001294 -0.014692 -0.006772 0.003799 0.004083 -0.022906 0.005230 -0.014892 -0.003464 -0.001581 -0.002519 0.002449 -0.002739 -0.009683 0.024911 0.006682 -0.017000 
aaacn 0.009940 0.001740 0.007178 0.003972 0.004446 0.006226 0.016013 0.016270 0.002937 0.003768 -0.005783 0.009078 -0.009521 -0.006709 -0.004467 -0.005207 -0.003078 0.000709 0.004034 0.023045 -0.008285 -0.008934 -0.000475 -0.000080 0.009750 0.000856 0.008416 0.016970 0.022945 0.005991 0.017599 0.004504 0.004708 -0.006848 0.019792 -0.004947 -0.006351 -0.007980 -0.023929 0.012822 -0.001971 0.007682 0.003891 -0.016130 0.005499 -0.007599 0.009749 -0.014857 0.001403 -0.004787 0.021705 -0.006504 0.012164 0.016166 0.012300 0.018481 0.008346 -0.004635 -0.006743 0.014207 0.014197 -0.024173 -0.012596 0.003794 -0.003695 -0.004558 -0.003614 0.005155 0.016686 -0.000978 0.010182 0.003707 0.006895 -0.002376 0.001887 0.010219 -0.008064 0.013029 -0.007737 -0.014535 0.012800 -0.006506 -0.010297 -0.004221 -0.013536 -0.005050 0.010628 0.007877 -0.016247 -0.002805 0.032215 0.015491 0.009316 0.003724 0.002316 0.010105 -0.042017 0.025733 0.004068 0.015813 
aaaf -0.031448 0.014758 0.008245 0.021794 -0.008995 0.017649 -0.003222 0.012491 0.012025 0.004377 -0.014452 0.007741 -0.017745 -0.011578 0.000610 0.011613 0.014566 0.009018 -0.012972 -0.007241 -0.006895 -0.019752 0.020133 0.001514 0.003553 0.005796 -0.010334 0.000835 0.042917 0.030229 0.006548 -0.007495 0.014048 -0.017941 0.035304 -0.002914 -0.014604 0.009735 0.026110 -0.013035 0.006631 0.000044 0.013624 -0.036622 0.011080 0.010991 -0.007022 0.037968 -0.003506 -0.011611 -0.018242 -0.028228 -0.000837 0.005937 0.026932 -0.035734 -0.003834 -0.021785 -0.014964 -0.018706 -0.003338 -0.008456 0.031869 0.000354 0.024850 -0.018589 0.002318 -0.026771 0.015042 -0.009009 -0.020918 0.002509 0.052595 -0.008748 -0.000971 -0.002054 -0.001847 0.014194 0.019555 0.012530 0.006105 0.003224 -0.001609 0.007698 -0.015168 -0.009333 -0.007985 0.029557 -0.001820 0.020783 0.025150 0.039607 0.014756 0.002188 0.002757 0.035797 0.002133 0.009799 -0.012760 -0.007779 
aaagh 0.010533 -0.002474 -0.002256 0.004021 -0.002607 -0.002948 -0.022493 -0.001264 -0.011358 0.014095 -0.000759 0.011027 0.011450 0.003371 0.013895 -0.008115 0.017285 0.015353 -0.015555 0.010772 -0.016276 0.010963 0.011407 -0.005156 -0.012689 -0.004522 0.006091 -0.001550 -0.009962 0.000539 0.000475 0.001776 0.008048 0.009445 -0.002936 -0.017615 -0.005149 -0.010407 0.002651 -0.016160 0.003671 0.011028 0.001065 -0.003596 -0.001103 0.005551 0.010076 0.004597 0.002717 0.023449 -0.000216 -0.006344 0.003528 0.000588 -0.007548 0.011655 0.005294 0.010494 -0.002090 -0.001986 -0.012091 0.008984 -0.005357 -0.002559 0.012360 -0.009384 -0.046076 -0.007940 -0.009795 -0.012410 -0.004122 0.003218 0.014579 0.003785 -0.018702 0.000256 0.001451 0.004598 0.014982 0.011860 -0.015626 0.013968 0.015274 -0.002352 -0.006875 0.000477 -0.006144 -0.002225 -0.022137 0.009391 -0.010044 0.013434 0.010433 0.007823 -0.003886 0.008056 0.008112 0.007057 -0.023766 0.020966 
aaah -0.002186 0.007173 -0.006751 0.001980 -0.006034 -0.001861 0.007374 -0.005672 0.002131 0.000333 0.004728 0.008739 0.028019 0.003490 0.004817 -0.003345 0.007673 0.002973 0.019446 0.008234 -0.005861 0.020635 -0.001193 0.010443 -0.005674 0.012368 0.006203 0.002850 -0.000249 0.009015 -0.008506 0.005149 0.004358 0.004716 -0.008226 -0.013242 0.001351 0.021175 -0.010487 0.008846 -0.016524 -0.001308 -0.014943 0.002025 0.000240 -0.004018 0.013906 0.000662 -0.004244 -0.001824 0.006359 0.000214 0.004536 0.002735 0.008033 0.005522 0.024988 -0.013093 -0.010612 -0.003213 0.003525 -0.010001 -0.022042 0.013840 0.011065 0.005489 -0.003074 -0.000011 0.010046 0.005123 -0.003118 0.001512 -0.006931 -0.001179 -0.004449 0.000395 -0.003351 0.016038 0.008310 0.003032 0.029562 0.007270 -0.010958 0.019907 0.002629 -0.008013 -0.008084 0.006619 -0.002583 -0.012557 -0.003333 0.009480 0.004560 -0.005493 -0.002462 0.008369 -0.002455 0.017100 -0.003690 0.016999 
aaahc -0.009388 -0.009686 0.004916 0.024139 -0.016696 -0.006855 0.008128 0.002274 -0.014459 0.000473 -0.006954 0.002955 0.008000 0.005449 -0.003147 -0.000774 -0.007226 -0.001541 -0.010267 0.012407 0.002609 -0.009493 0.005409 -0.012711 0.003408 0.013914 -0.003118 0.013644 -0.004339 0.000144 -0.005224 0.015867 -0.002329 0.011110 0.002105 0.005789 0.021191 -0.003180 0.006912 0.008813 -0.010542 0.008846 -0.014273 0.002084 -0.023801 -0.000098 0.010472 0.018519 0.001133 -0.012751 0.002857 -0.002465 0.014966 -0.001029 0.000522 -0.000048 -0.006421 0.008991 0.008170 -0.003863 -0.010284 0.005443 0.003694 0.027336 0.010777 -0.012235 -0.012761 0.002052 0.006710 -0.016580 0.016962 -0.005990 0.017569 0.008421 0.003821 0.006340 -0.013204 -0.003184 -0.002694 -0.026783 0.004387 0.008484 -0.000825 -0.000942 0.011737 0.017930 -0.004118 -0.006777 -0.017568 0.011551 -0.010222 -0.021791 0.000872 0.011744 -0.013547 -0.008169 0.009585 0.023019 -0.012719 -0.005758 
aaai 0.015060 -0.009639 0.016221 -0.001814 -0.016635 -0.019317 -0.024034 0.002461 0.037334 0.039495 0.005728 -0.006469 -0.018055 -0.000079 0.014837 -0.023893 0.007701 -0.004150 -0.017362 0.012118 -0.015740 -0.005587 -0.016014 0.006202 0.009444 -0.010264 0.014750 -0.000626 0.023136 0.017078 -0.008421 0.002188 -0.002272 0.015645 -0.007451 0.008569 -0.014732 0.021031 0.029654 -0.036223 -0.005653 0.000117 0.002020 -0.009848 0.004018 -0.014392 0.036752 0.001589 0.004383 -0.024337 -0.016807 -0.014073 0.003797 -0.016397 -0.008761 -0.017457 0.015500 -0.009365 0.008092 0.007571 -0.016771 -0.000587 0.022892 0.004329 -0.013562 -0.001247 0.027339 -0.047812 0.007895 0.018716 0.029489 -0.009489 0.002252 -0.004390 0.018682 0.033370 0.008285 0.005242 0.004146 0.000441 0.015725 0.006549 -0.020408 -0.035848 -0.006562 -0.001682 0.003984 0.018848 -0.008327 -0.002712 0.001625 0.047451 0.006601 -0.019323 -0.010310 -0.016971 0.014635 0.008169 -0.018612 -0.010324 
aaaj 0.000333 -0.001568 -0.007551 -0.020792 -0.014738 0.011060 0.009097 0.004969 -0.009006 -0.006352 0.008377 0.000507 -0.010558 -0.002560 0.003794 0.011984 0.006711 0.003757 -0.013736 -0.017607 0.006831 0.002295 -0.007989 -0.001901 -0.007459 0.008775 0.002152 0.003072 0.002018 -0.005171 -0.015330 0.007808 -0.007143 -0.000798 0.000213 0.003948 -0.001364 -0.006174 0.020960 -0.002379 0.003669 0.003475 0.006396 0.015129 -0.008343 -0.004711 0.003962 -0.001583 -0.012273 0.007446 -0.013275 -0.006106 -0.013013 0.003513 -0.000903 -0.002630 0.001483 0.003516 0.018552 0.001272 0.004066 -0.012534 -0.013561 -0.000226 -0.002184 0.004318 -0.007403 0.002730 0.004973 0.004920 -0.001907 0.009661 -0.012382 -0.007310 -0.001232 -0.004181 0.011668 -0.011348 -0.000473 0.003758 -0.004742 0.002298 -0.021627 0.007641 -0.006290 -0.015738 -0.009182 0.003455 0.011195 -0.005371 -0.004306 -0.000057 0.010143 -0.002110 0.004672 0.006421 0.000003 -0.016402 0.013569 -0.002194 
aaas 0.004049 0.028909 -0.009022 0.000581 -0.002099 -0.021260 -0.012767 -0.013036 -0.037246 0.014068 0.014899 -0.010277 0.026248 0.010445 0.001786 0.014385 0.029297 -0.010682 -0.002581 0.005903 -0.003722 0.004857 0.008923 -0.023753 0.012246 -0.023196 -0.021136 0.008814 0.013005 0.022429 0.004782 -0.000344 0.000587 0.000148 -0.004419 -0.003068 0.023472 0.004482 -0.003801 -0.028062 -0.016757 -0.023568 -0.012912 0.023903 0.003646 0.012000 0.008429 0.012388 0.000337 -0.014117 -0.015228 0.023519 -0.011787 0.004576 -0.012235 0.001125 -0.000006 -0.004150 -0.003148 -0.019480 0.010237 0.006282 -0.009065 0.010247 0.008718 0.020320 0.009561 0.010019 -0.013453 -0.022171 -0.004707 -0.008716 -0.010473 -0.015257 -0.005255 0.009892 0.006140 0.004180 0.021014 0.007561 -0.003634 0.011490 -0.016357 -0.019122 -0.006406 0.004346 0.011244 0.002631 0.016003 -0.016070 -0.003668 -0.010161 -0.008450 -0.009526 0.017376 0.001536 -0.016247 -0.000318 0.018408 -0.001538 
aaasc 0.011148 -0.016944 0.013319 -0.012310 0.016619 0.005667 0.008200 -0.001792 -0.001209 0.000821 0.002836 0.011871 -0.010767 -0.005722 0.007392 0.009649 0.019661 0.000348 -0.019416 0.000290 0.001288 0.001228 -0.000976 0.016359 -0.002717 -0.010201 -0.004457 -0.008936 -0.001736 -0.000211 0.010380 0.026536 0.010417 0.002256 -0.006677 -0.002681 -0.002088 0.001586 0.013793 -0.002993 0.001460 0.005390 0.010342 0.013480 -0.009547 0.017828 0.004686 -0.013737 0.004956 -0.002154 0.002408 -0.000750 -0.005475 0.010471 0.003898 0.003990 -0.005481 0.016920 0.005403 -0.000595 0.012115 -0.006340 -0.004172 -0.012932 -0.004540 -0.005863 -0.001185 -0.012161 -0.005893 0.005758 0.009631 -0.005909 -0.017047 -0.007301 0.015113 0.006691 0.031673 0.018797 -0.006078 -0.004242 -0.015847 0.012550 0.009813 0.006487 0.021116 0.010206 0.009492 0.010400 0.007223 -0.009974 0.004146 0.014714 0.009631 -0.002032 0.002541 0.014073 0.018646 -0.023758 -0.002806 0.003300 
aaaw 0.005849 -0.000608 0.000880 0.008971 0.011803 0.003187 0.012764 0.008100 -0.019349 0.004281 0.003856 -0.020282 -0.008822 0.014330 -0.010705 0.028415 0.001032 -0.016468 0.006105 0.008327 0.020178 0.016488 -0.007347 -0.014838 0.016614 -0.008615 -0.011141 0.007181 0.022771 0.012106 -0.012743 0.012830 -0.005464 0.008774 -0.017553 -0.006100 -0.012810 0.013422 -0.021736 -0.016180 0.006760 -0.013932 0.006267 0.003124 0.011864 -0.017945 -0.001531 0.007816 -0.007933 0.008501 -0.022582 -0.011736 0.003187 0.000839 -0.007212 -0.008533 -0.001237 0.012769 0.005180 0.003654 0.026746 0.008805 -0.005441 0.005356 -0.000915 -0.001369 -0.003231 0.001711 -0.008017 0.024381 -0.000683 -0.006045 0.004740 -0.004491 0.017709 0.023510 -0.010003 0.006988 -0.004755 -0.001183 -0.002150 -0.011835 -0.010859 -0.001506 -0.033959 0.006557 0.017280 0.013539 0.002252 0.026113 -0.012229 -0.001426 0.005146 0.013512 -0.011963 -0.002241 0.000718 -0.019379 -0.003092 0.011541 
aab 0.007793 -0.019171 -0.023568 0.002909 0.017177 0.016356 -0.001802 -0.015519 0.031486 0.009341 -0.001541 0.002893 0.002537 -0.022004 0.004343 -0.025771 0.007220 0.022034 -0.003466 0.005607 -0.047776 0.002428 0.006548 -0.026373 0.000234 -0.010098 -0.018405 -0.013243 -0.004115 -0.008411 0.009201 0.011516 -0.018326 -0.000607 -0.007215 -0.027423 0.009831 0.009148 0.016027 -0.007669 -0.004901 -0.004553 -0.022796 0.028534 0.018388 0.028117 -0.000451 0.012473 -0.001588 0.004901 0.002772 0.011051 -0.010753 0.014479 0.024417 0.001886 -0.022923 -0.044666 -0.001003 -0.027505 0.020162 0.011546 -0.005681 0.014063 -0.016056 0.007518 0.010781 -0.001599 0.001811 0.006393 0.035580 -0.024208 -0.027251 0.021115 -0.006441 -0.008801 -0.003106 -0.016369 -0.016464 -0.016316 0.020096 0.040925 -0.013782 -0.021798 -0.014527 0.014606 0.007706 -0.010724 -0.002916 -0.021024 -0.028680 -0.008520 -0.045089 0.009351 0.000577 -0.015017 0.008102 -0.034442 -0.037217 -0.004640 
aabach -0.011980 0.008652 -0.005049 0.004936 -0.001741 -0.010637 0.001621 0.005947 -0.001191 -0.013676 -0.004917 0.015237 0.021525 -0.008137 0.003374 0.001245 -0.012540 -0.000676 -0.013366 -0.000068 0.007884 -0.018194 -0.017662 -0.001852 0.010211 0.000018 0.006176 0.008843 0.006721 0.002247 0.011519 -0.007980 -0.012526 0.011247 0.004246 -0.010881 -0.001095 -0.000367 -0.006266 0.025975 0.020355 0.005277 -0.004380 -0.004911 0.007312 -0.004437 0.016300 0.008166 0.011417 -0.001122 -0.002607 -0.019227 0.010494 -0.010992 0.018640 -0.036585 -0.012540 -0.007034 0.016236 0.006911 0.002241 -0.005258 -0.009092 -0.002285 -0.022177 0.000764 -0.030911 0.016438 -0.002222 -0.017218 -0.011469 0.006204 0.015040 0.008217 -0.003784 -0.001843 -0.021086 0.011814 0.002582 -0.009288 0.006526 -0.014980 0.009205 0.007675 -0.009995 -0.004028 0.003897 -0.002795 -0.010405 -0.005637 -0.000935 0.002361 0.005223 -0.005065 -0.019708 0.005851 -0.008678 -0.001088 0.008238 -0.027604 
aabachstausee -0.018955 0.001312 0.018652 0.002944 0.000849 0.005677 -0.013982 0.017413 -0.000131 -0.001129 -0.028450 0.030793 -0.008706 -0.007699 0.015811 -0.008624 -0.000204 -0.005443 0.004111 -0.004221 -0.002769 -0.007918 -0.019760 0.003888 -0.000988 -0.007529 0.003217 -0.004944 0.000677 0.003988 -0.000817 -0.009363 -0.007673 0.016533 0.004899 -0.009193 0.011389 -0.000311 -0.020181 0.005499 -0.003584 0.000705 -0.011854 -0.000745 0.008398 0.018519 0.005826 0.007187 0.001450 0.012561 0.011861 0.003484 0.006932 0.005877 -0.008323 -0.004202 -0.017891 -0.005113 0.002974 -0.007395 -0.000963 0.001900 0.003838 -0.005299 0.000471 -0.014072 -0.012862 0.006701 -0.005464 -0.016405 0.010757 0.011344 -0.008282 0.005186 0.005280 -0.003209 -0.005400 0.004584 0.018197 -0.031816 0.008383 -0.011569 -0.011492 -0.002479 -0.001608 -0.004189 -0.012603 -0.009047 0.013402 0.001385 -0.017812 -0.025772 -0.006847 -0.000355 0.003060 0.008054 0.004410 -0.009692 0.002575 -0.006676 
aabar 0.011671 0.003159 -0.000573 -0.005413 -0.002669 -0.007680 0.016419 -0.007887 0.023958 -0.005281 -0.010719 0.018556 0.011753 0.001598 0.002514 -0.022919 -0.017297 0.007048 0.002442 -0.008209 -0.012736 0.003118 0.019047 -0.019750 0.012718 0.002987 -0.005078 0.003575 0.000589 0.016434 -0.005197 -0.010619 -0.004326 0.002187 -0.006359 -0.007557 0.010398 -0.006840 -0.021431 0.007816 -0.002498 0.008395 0.001955 -0.006425 0.004128 -0.017735 -0.003657 -0.001084 0.008742 -0.002470 0.004037 -0.003427 -0.004744 -0.004375 0.000348 -0.008100 0.004792 -0.017827 -0.028261 -0.013288 0.008751 -0.023431 -0.011543 -0.000404 0.001806 -0.022149 -0.001927 -0.009734 -0.011478 -0.014919 -0.012158 0.009173 -0.005480 -0.014099 -0.002224 -0.001628 -0.002020 0.013843 0.003587 0.014609 -0.010963 0.010754 0.014418 -0.015934 -0.002127 0.003216 0.022069 0.012413 0.000315 -0.004945 -0.000240 -0.002272 -0.004367 -0.000064 0.008162 -0.009446 0.006644 -0.002352 0.019208 0.004137 
aabech 0.009761 -0.007043 -0.000728 -0.004007 0.002690 0.009060 -0.007576 0.000278 0.027694 0.012784 -0.004005 0.020992 0.006000 0.029589 0.020315 0.019607 0.009586 0.004453 0.029988 0.014221 0.007951 0.007864 0.005734 0.012894 0.010453 0.024935 -0.009874 -0.014006 0.017491 -0.002084 -0.004215 -0.020004 0.012240 -0.000439 -0.016332 -0.004235 0.002187 -0.037879 -0.022977 -0.012150 0.018548 -0.002227 0.032919 -0.011681 -0.017926 0.001368 -0.020649 -0.005672 -0.008535 -0.010731 0.021786 -0.013292 -0.012231 -0.003729 0.015723 -0.007272 0.000605 0.022532 -0.005646 -0.008920 0.009401 -0.012910 0.002814 -0.006529 -0.007492 -0.020654 -0.017817 0.000048 -0.016038 0.007571 -0.003466 0.003779 -0.011186 -0.018263 -0.010588 0.001509 -0.030132 0.037039 -0.004729 -0.007014 -0.014241 -0.015817 -0.000023 -0.000096 0.001449 -0.002487 0.006218 0.017784 -0.004851 -0.004679 -0.011189 -0.028674 0.030023 -0.018734 -0.008067 -0.007428 0.003488 0.015355 0.015940 -0.005426 
aabel 0.006705 0.010181 -0.009884 0.000545 -0.004249 0.004013 0.004250 0.018549 -0.021545 -0.027769 0.005499 0.005751 0.003039 0.013092 -0.010206 -0.011634 0.014621 0.008837 -0.002458 -0.010151 0.006910 0.017045 -0.014514 0.020655 -0.004311 -0.012055 0.010947 -0.012496 0.000585 0.004128 -0.017563 0.003813 -0.006118 -0.006972 0.004269 0.004579 -0.007866 0.004570 0.010837 -0.008981 0.003808 0.012115 0.003081 0.003568 0.016502 -0.001799 -0.000717 -0.005821 -0.005296 -0.015574 -0.003859 0.016108 -0.004477 -0.019426 -0.021193 0.006757 0.004038 -0.002518 0.005385 0.002963 -0.006808 -0.007959 0.012282 -0.022613 0.010170 -0.007673 0.009406 -0.001832 0.003502 -0.003502 -0.008584 0.004840 0.014672 -0.003909 -0.000708 0.002970 0.007451 -0.005295 -0.002918 0.016827 -0.001056 0.002749 0.005112 -0.015919 0.005852 -0.020034 -0.011928 -0.014472 -0.007086 0.000983 0.016700 -0.004027 -0.001674 0.009523 -0.004019 0.005761 -0.001436 -0.005148 0.025458 -0.002369 
aabenraa 0.012286 -0.027857 -0.024179 0.004330 -0.005712 0.032637 0.030175 -0.001279 -0.005711 -0.012087 -0.000788 -0.015335 0.003980 0.000120 0.006058 -0.033532 0.001776 -0.001470 0.009554 -0.007465 0.021980 0.023744 -0.031072 0.018855 -0.005559 -0.001824 0.008393 0.028654 0.010812 -0.017428 -0.000789 -0.002287 0.012790 -0.006739 -0.016911 0.014812 -0.031121 -0.003115 0.012046 -0.000686 0.033618 0.003892 -0.012942 -0.002030 0.035463 0.027541 -0.017571 0.025679 0.012765 -0.024956 0.021372 0.019949 0.009517 -0.009980 0.011716 -0.013106 0.005101 0.040329 -0.000199 -0.000632 0.018399 0.022920 -0.012700 -0.009339 -0.006323 -0.007441 0.000831 0.005852 -0.016518 0.016780 -0.000970 0.022302 -0.016104 -0.032783 0.016636 -0.002125 0.011661 -0.011542 -0.014138 -0.008725 0.000145 -0.006653 0.008930 -0.005453 -0.007104 0.003042 0.004013 -0.040640 0.002595 0.005230 -0.010059 -0.022095 0.012380 -0.000228 -0.012225 0.026364 -0.002638 0.008011 0.014204 0.014309 
aaberg -0.008880 -0.024105 -0.015195 0.007159 0.004426 0.005318 0.006287 0.013860 0.006201 -0.005543 0.004218 -0.006373 -0.014805 0.008904 -0.016787 0.000345 0.011975 -0.001316 0.004641 0.013991 0.001099 -0.006528 -0.013114 -0.008988 -0.011410 -0.001124 -0.001103 0.007922 -0.023874 -0.003538 0.011527 -0.002993 0.009787 0.005836 0.005655 -0.019554 0.014641 0.013944 0.013223 -0.004183 -0.009238 0.004051 -0.016421 0.014737 -0.014946 0.010775 -0.013134 -0.003102 -0.010197 0.001812 0.031488 -0.003908 -0.013772 0.006990 0.013919 -0.018836 -0.016021 -0.019111 -0.017962 -0.002847 -0.008027 0.001349 0.010630 -0.006378 -0.005560 0.010106 -0.024369 0.002756 -0.004849 0.006447 0.010620 -0.007980 -0.004653 -0.006405 0.000229 0.001467 -0.022845 0.008212 0.014090 -0.018918 -0.011406 -0.002953 -0.006135 0.009062 0.000201 -0.001373 0.003953 0.006296 0.009066 -0.001108 0.007953 -0.020428 -0.002134 -0.000613 0.006755 -0.015630 -0.008208 0.011591 0.000113 0.004447 
aabfj -0.007643 0.003762 0.006281 0.008684 0.007189 -0.007732 0.000920 -0.008907 0.002581 -0.002389 0.001763 -0.003195 -0.007768 0.013416 0.015634 -0.005637 0.000279 0.020143 0.001675 -0.002593 0.003908 -0.009027 0.001241 -0.025206 -0.013730 0.005263 -0.000270 0.000472 0.007126 -0.014723 0.014764 0.002815 0.014236 0.015181 -0.014479 -0.002022 -0.016176 -0.014638 0.013583 -0.012726 -0.011098 0.012655 0.006441 -0.005840 0.016121 0.004694 -0.008051 0.001593 -0.020490 -0.006567 -0.008248 -0.010280 0.016296 -0.009276 0.002007 -0.001631 -0.027180 0.022928 0.002782 -0.008095 0.002699 0.015529 0.002162 0.005713 0.002233 0.015515 0.016426 -0.005252 -0.008987 -0.003401 0.006240 0.008903 0.001524 -0.003969 -0.001777 0.017884 -0.004516 -0.000291 -0.004628 -0.008632 0.007497 0.014444 -0.002167 0.007170 -0.008478 0.017010 -0.001193 0.008835 0.009474 0.006617 -0.020504 0.013019 -0.007619 0.008428 0.004656 -0.006806 -0.007263 -0.018819 0.013147 -0.015767 
aabid -0.019657 -0.011385 0.020655 0.004105 -0.004211 -0.006673 -0.002712 0.008034 0.004008 -0.005796 0.004388 0.000919 -0.011300 -0.003495 -0.003959 0.008574 0.004512 -0.007016 -0.017365 0.007671 0.009803 -0.003540 0.001563 0.001063 -0.005446 0.002057 0.006081 0.003823 -0.018447 0.005597 -0.001726 -0.011087 -0.011831 0.005361 0.023442 0.011065 -0.009723 0.009463 -0.013098 0.013135 -0.014214 -0.001435 0.016549 -0.012731 -0.007588 -0.012881 -0.002501 0.017123 0.005269 -0.021014 -0.001783 -0.000158 -0.002443 0.005768 -0.007492 -0.002411 0.002914 0.017505 -0.021864 0.004221 -0.009344 -0.018906 0.004813 -0.012464 -0.000142 0.010578 -0.002158 -0.018176 -0.012455 -0.003293 0.019418 -0.006948 -0.002644 0.008566 -0.006124 -0.001753 -0.003801 -0.006746 -0.014066 -0.033100 0.004145 0.002591 0.013484 -0.021548 -0.002534 0.005820 -0.014964 -0.004249 -0.010399 -0.001360 0.015165 -0.019775 0.000344 -0.003060 0.000480 -0.000493 0.009000 0.005832 0.006009 0.001010 
aabn 0.000488 -0.000022 0.004366 0.020062 0.000155 0.005273 0.003527 -0.019288 -0.002190 -0.004982 -0.010761 -0.009411 0.015726 -0.011239 -0.013351 0.012726 0.014467 -0.010179 -0.000951 0.016896 -0.003203 0.007968 -0.004244 -0.003385 -0.003874 0.007540 0.005869 0.001282 -0.010651 0.000441 -0.007092 0.015642 0.005468 0.024970 0.017057 0.010694 -0.005287 0.010733 -0.002723 0.005700 0.008302 -0.002092 -0.007511 -0.005264 0.015824 -0.012253 -0.014888 0.015626 0.000491 0.011432 -0.003804 -0.004433 0.002082 -0.008322 -0.005779 -0.010763 -0.007684 0.011821 -0.004082 -0.000033 -0.005300 -0.023259 0.004424 0.004936 0.011760 0.009814 -0.001464 0.004644 -0.017624 -0.019970 0.002956 0.011157 0.006114 0.002704 -0.000681 -0.004935 -0.003673 0.010327 -0.013940 -0.014608 -0.014297 0.006283 -0.005539 0.011238 -0.006972 -0.015214 0.005439 -0.000212 -0.009521 -0.003461 0.002147 0.009521 -0.000353 -0.000157 -0.005249 -0.005107 0.010303 0.005238 0.010313 0.005742 
aabove 0.001870 0.017215 -0.008472 -0.013375 0.001505 0.011009 -0.004850 -0.017430 -0.008733 -0.010776 -0.011908 0.008879 -0.004132 -0.006790 -0.003265 -0.012460 0.002188 0.007896 0.019305 -0.006920 -0.017657 0.003617 -0.020656 0.000351 0.004360 -0.011292 -0.008210 0.002970 -0.007099 0.013424 -0.002758 -0.003324 0.008273 -0.017226 0.007741 -0.005101 0.011384 0.011279 0.010214 0.001278 -0.000155 0.012025 -0.002333 -0.001973 -0.000497 0.009375 -0.000165 -0.008057 -0.023496 0.000674 0.009047 0.000535 -0.002799 0.003873 0.003639 -0.008889 -0.004898 -0.006048 -0.003168 -0.007968 0.000744 -0.020658 -0.018967 0.012498 0.018991 -0.003454 0.001963 -0.004052 -0.008444 0.005031 -0.006985 -0.011170 0.005542 -0.003329 -0.004465 -0.013401 0.008178 -0.014304 -0.000049 -0.030822 0.000215 0.002939 0.014190 0.002969 0.020486 0.000466 -0.008912 -0.002768 -0.003503 0.006802 0.005187 -0.001657 0.011990 0.003437 0.017665 0.030369 0.015843 -0.005148 -0.003322 0.012339 
aabsal -0.002058 0.020216 -0.022669 -0.022096 0.012560 -0.008946 0.010199 0.009614 0.012269 -0.003167 0.014588 -0.007945 0.005822 -0.000043 0.008314 -0.010792 0.005740 0.000446 -0.003076 -0.016156 0.009155 -0.004529 -0.009002 0.001414 0.006965 0.009187 -0.005884 0.005995 0.010676 0.017779 0.010112 -0.000989 0.009815 -0.003287 -0.001005 -0.016962 -0.003757 0.005759 0.008379 -0.015273 0.009046 0.008049 0.008350 0.002646 -0.008916 0.020441 0.004265 -0.020989 -0.001566 0.003851 0.004925 0.004787 -0.018966 0.020455 0.013254 -0.007500 -0.013862 -0.005648 -0.009516 -0.024142 -0.014186 0.002138 0.017306 -0.023909 -0.008982 -0.017279 0.007610 0.009938 -0.015753 0.009577 -0.000189 -0.008021 0.008701 0.011119 -0.021792 -0.009236 -0.017701 0.002113 -0.001507 -0.009436 0.011711 -0.012431 0.006490 -0.007439 -0.021028 0.005188 0.012517 -0.001748 0.004612 0.000486 0.005546 -0.005797 -0.015754 -0.021616 0.016123 -0.029115 0.012812 0.001455 -0.015248 -0.009644 
aabye 0.014456 0.012039 -0.002841 -0.005205 -0.015903 0.001729 0.011755 -0.003518 -0.005585 0.004598 -0.009081 -0.014632 0.003795 -0.009173 -0.010628 0.010922 -0.011299 -0.010520 -0.016513 -0.011252 0.003060 -0.005517 -0.014459 -0.002719 0.010417 -0.002750 -0.004930 0.009278 0.003364 -0.010121 -0.008858 -0.021500 -0.008007 -0.005471 0.007727 -0.006083 0.007603 -0.015908 -0.011594 0.011768 -0.012796 -0.001622 -0.015601 -0.014272 -0.015666 0.000057 0.016758 -0.007881 0.002356 -0.004473 -0.011767 0.003783 0.009601 0.020332 -0.019077 0.002421 -0.012982 -0.006896 -0.007918 -0.003978 -0.000457 -0.005982 0.011832 0.013684 0.004186 -0.009936 0.003804 0.023666 -0.003653 -0.007545 0.028750 -0.006015 0.004676 0.022131 -0.018008 -0.013477 -0.011595 -0.014832 0.002128 -0.000731 0.002102 -0.006478 0.014523 -0.008887 -0.016656 0.000888 0.016850 -0.003222 -0.004942 -0.006068 0.006120 0.000152 0.007361 0.001025 -0.002657 -0.004409 -0.007598 0.006351 0.004157 -0.015091 
aac 0.013758 0.048049 0.050772 -0.046152 0.044351 0.019636 -0.016691 -0.049776 -0.050504 0.001793 -0.033903 -0.002121 -0.051109 0.030778 -0.048555 -0.014522 0.013601 -0.071413 0.026748 0.007747 0.021993 0.034113 -0.015331 -0.006804 0.052245 -0.007073 -0.022707 -0.021721 0.029933 0.003722 0.033592 0.038515 0.012304 0.000242 0.017044 0.052925 -0.065840 0.022506 0.058961 -0.045829 -0.020105 -0.013113 -0.009709 0.004955 0.016736 -0.013008 -0.009487 0.003111 0.006886 -0.045243 -0.002252 -0.002890 -0.089342 0.006994 -0.013585 0.003172 0.020880 0.005150 0.007898 0.001205 0.022051 -0.015045 0.014971 -0.013058 0.004295 0.003938 0.024759 0.022005 -0.030813 0.020810 0.025709 -0.009900 -0.009430 0.009366 0.041920 0.084247 -0.028825 0.044031 -0.014540 0.079018 -0.035154 0.044424 -0.011618 -0.026412 0.021418 0.001170 -0.002092 -0.006346 0.013509 0.009731 -0.029442 -0.012666 -0.004200 0.013982 0.028550 0.009537 -0.039605 -0.018531 0.017000 0.011076 
aaca 0.009686 -0.004538 -0.005511 -0.010798 0.018257 -0.012728 0.023263 0.018683 0.011653 -0.007295 0.022371 -0.010012 -0.002790 -0.013404 -0.000425 -0.022338 0.010650 -0.026322 -0.005630 0.000888 -0.023323 -0.018497 0.006257 -0.021904 0.014917 -0.018028 -0.003274 0.006845 0.007178 0.013578 0.028556 0.020384 0.001311 0.008580 0.011556 0.002597 0.010651 0.000490 0.015746 0.000534 0.012261 -0.008688 -0.001238 0.007347 0.022534 0.015414 -0.004210 -0.000166 -0.006084 -0.034434 -0.002817 0.014706 -0.010655 -0.006918 0.011825 -0.009226 0.026979 -0.016647 -0.013453 -0.007974 -0.008031 0.009930 0.006229 -0.016436 0.022786 -0.000621 -0.002744 -0.014246 -0.003166 -0.019358 0.003262 -0.014171 -0.011696 -0.014570 0.003378 0.012433 0.006059 0.021179 -0.018875 0.026333 -0.022752 0.012121 0.002651 -0.029927 0.021958 0.021545 0.007259 -0.007828 0.013034 -0.020471 0.014212 -0.009886 0.013278 0.003301 0.029677 -0.022074 -0.011888 0.007588 0.003898 -0.010429 
aacbf -0.001302 0.027815 -0.009528 0.000239 0.012463 -0.014431 0.011857 -0.001606 0.007293 0.003096 -0.019990 0.005982 0.009728 -0.015687 0.005614 0.001660 0.002824 -0.015641 -0.017834 0.014691 0.003932 -0.004878 -0.011976 0.024588 -0.002200 0.002548 -0.014020 -0.007803 -0.003729 0.005300 0.000738 -0.008030 0.036739 -0.002847 -0.005172 -0.015182 -0.004417 0.006890 0.011138 0.025160 0.011309 -0.011253 0.003569 -0.006454 -0.005225 -0.006124 -0.007055 -0.016217 -0.010685 0.007570 0.013123 -0.011938 0.023023 -0.003275 0.001462 -0.003888 0.012498 -0.014046 0.014653 -0.017757 0.003220 -0.020059 -0.008953 -0.003568 0.014762 0.018056 0.012838 0.001518 -0.015373 0.006648 -0.007747 -0.016986 -0.000291 -0.007002 -0.022351 0.003210 -0.004587 0.010462 0.008840 -0.010222 -0.021158 -0.007205 0.017063 0.023328 -0.011581 0.005746 -0.003089 0.008481 -0.005496 0.007700 -0.005015 -0.002740 0.001884 0.013997 -0.002446 -0.000496 -0.001667 0.000725 0.003867 0.000567 
aacc -0.002859 0.003271 0.016694 -0.002050 -0.011757 -0.006288 0.007858 0.007623 0.001415 -0.012816 0.019366 0.007967 0.009336 0.014084 0.007036 0.015000 0.001332 -0.000874 0.004908 0.016013 0.004774 0.003939 0.007294 0.003167 0.023465 0.009686 -0.000058 0.006464 0.001189 0.002318 0.016886 -0.013135 -0.006450 0.003092 -0.006019 -0.000552 0.006193 0.003844 -0.006593 -0.001764 0.002716 -0.008133 0.009028 0.007194 -0.008765 -0.002880 -0.004963 0.004910 0.009428 -0.004027 0.003607 -0.001480 -0.005821 0.011140 -0.009272 0.012950 0.024083 0.022706 -0.006453 0.009058 -0.009532 -0.017092 -0.004139 -0.012981 0.005238 -0.006496 0.004033 0.000212 0.009484 0.002533 -0.010902 -0.015797 0.004072 0.006308 -0.003363 -0.002096 0.019568 0.005290 -0.019475 0.019788 -0.015429 0.010698 0.012591 0.007289 0.016907 -0.013935 -0.005586 0.000161 -0.009698 0.002479 0.018350 0.023162 0.020552 -0.000411 -0.001960 -0.002980 -0.002994 -0.004090 0.004507 0.014676 
aaccupqa -0.015261 0.002647 -0.008856 -0.030352 0.000465 0.009691 -0.001851 -0.012122 0.008367 0.001925 0.001939 -0.006323 0.007521 0.013288 0.013955 -0.007958 0.009420 0.008247 -0.011423 -0.007687 -0.007356 0.007628 0.018897 0.016338 -0.008038 0.006930 -0.006305 -0.004882 0.012083 -0.004941 0.004352 -0.004820 0.002528 -0.013515 -0.008311 -0.005125 -0.002310 0.001225 -0.014376 -0.002492 -0.012226 -0.009877 0.005120 0.030337 0.001353 0.006656 -0.010233 -0.005558 -0.019154 0.011052 -0.014199 0.000445 -0.025446 -0.010502 -0.001586 0.014687 -0.014429 -0.000057 -0.006015 0.003667 0.003086 0.007740 0.012089 0.008175 0.017519 0.032480 0.006287 0.031018 -0.012961 -0.007424 -0.010499 0.000098 0.004860 0.012745 0.026042 0.000134 -0.009132 0.008889 -0.002130 0.007089 -0.003228 -0.013002 0.004516 -0.004060 -0.001215 0.003835 -0.005100 -0.002637 0.000704 -0.003045 0.002330 -0.012273 -0.006413 0.001324 0.005135 -0.005560 -0.005125 -0.008288 -0.001138 -0.006927 
aach 0.049126 -0.035924 0.008068 -0.015264 0.003140 -0.000829 -0.040946 -0.006473 -0.000632 0.016853 0.005651 -0.009117 0.033561 -0.026353 -0.001394 -0.002632 -0.029255 0.010967 -0.011560 0.008501 0.027984 0.020885 -0.018649 0.031798 -0.014351 0.018967 -0.013691 0.013316 0.005381 -0.006803 -0.009833 0.014999 0.008853 0.017102 -0.003427 -0.002048 0.002432 -0.022599 0.002346 -0.001539 -0.009066 0.025319 0.016075 0.002735 -0.010002 0.011057 -0.025761 0.003350 -0.005708 0.001755 0.002309 0.020125 0.020824 -0.013453 0.034748 0.007816 -0.031303 -0.008375 -0.001269 0.004227 -0.016615 -0.012994 0.005527 0.000313 -0.006173 0.027337 0.010762 0.001564 -0.042706 0.032988 0.022008 0.013787 -0.047886 -0.013590 -0.003781 -0.032104 -0.005397 -0.020299 0.006837 -0.007873 0.019156 0.001119 -0.000736 -0.001883 -0.003456 0.003339 -0.005164 -0.035976 -0.003276 0.017873 0.003098 -0.003698 -0.010020 -0.002361 0.004604 -0.032836 -0.025828 0.002456 0.039008 -0.007063 
aacharya -0.001378 -0.011613 -0.015835 -0.002131 -0.001779 0.014168 0.026921 0.015207 0.005823 0.001138 -0.002627 -0.006926 0.008522 0.015669 0.007592 -0.024174 0.002748 -0.003330 0.025704 0.009002 -0.015725 0.000629 0.006619 -0.003171 0.018316 -0.014027 -0.017686 -0.006129 0.001735 0.009691 -0.008857 -0.006775 0.022252 -0.019234 0.004462 -0.011947 -0.006512 -0.011862 -0.009628 0.003092 0.007057 -0.007292 0.014211 0.014621 0.012930 -0.005200 0.004678 0.005307 0.004011 -0.006604 0.007279 0.004465 0.005018 0.002325 0.009118 0.012799 -0.018053 0.005799 0.006393 0.010472 0.014862 -0.006026 -0.009233 -0.014768 0.001703 0.012869 -0.010759 0.015324 0.007822 0.003759 -0.000700 -0.007091 -0.016094 0.007287 0.001856 -0.008011 -0.018411 0.011680 -0.000773 -0.001331 -0.002395 -0.003282 -0.000904 0.014779 0.009671 -0.012522 0.003388 -0.007487 -0.012139 -0.002787 -0.004961 -0.012119 -0.004448 -0.007504 0.021053 -0.020459 0.022386 0.010479 0.006279 -0.005629 
aachen 0.032944 -0.038514 -0.049897 -0.029109 0.053373 0.003436 0.031232 -0.052611 -0.015231 0.005316 0.022123 -0.014158 0.019082 0.013202 -0.035402 0.047273 0.017646 0.019491 -0.039950 -0.012279 -0.003140 -0.001191 0.000188 -0.022732 0.017061 -0.014656 0.006637 0.020451 -0.037236 0.023919 -0.032890 0.007055 0.035365 0.037505 -0.018289 0.001011 0.003729 0.006641 -0.025856 -0.005614 0.007289 -0.055270 -0.050156 0.021154 0.012546 -0.015608 0.001038 0.004975 -0.030812 0.011281 0.036942 0.048207 -0.005183 0.009914 0.012429 0.037767 0.038867 0.017278 -0.057840 -0.002405 0.040752 0.046175 0.010085 0.010863 -0.013582 0.009611 -0.005016 0.012668 0.034625 -0.001082 0.013740 -0.021254 0.004540 -0.050794 0.037745 -0.004513 0.031723 -0.005068 -0.021955 -0.019448 0.029959 0.016629 -0.026234 0.021654 0.020601 0.016774 0.004618 -0.037149 -0.032871 0.006854 0.005881 -0.022728 0.022523 0.039333 0.046328 0.011880 0.005622 0.004627 -0.044114 -0.038997 
aachener 0.018023 0.009017 -0.002136 -0.012841 0.025665 0.034643 0.001832 0.006418 -0.007602 0.007902 -0.000881 0.006126 -0.014165 0.033228 -0.006135 -0.013542 -0.027761 0.023203 0.003367 -0.008414 -0.018593 0.007207 0.004811 0.007385 -0.007438 0.023353 -0.005414 -0.004595 -0.022046 -0.000783 -0.010675 -0.006366 0.035738 0.013847 -0.006162 -0.007756 0.001780 0.006136 -0.001608 -0.005538 -0.005754 -0.022171 0.019053 -0.005335 0.001936 0.004393 0.008477 -0.020155 -0.001969 0.025922 -0.033879 0.000922 -0.008865 0.020920 0.008533 0.011703 0.011230 -0.003397 -0.035286 0.001488 -0.010004 0.005524 0.020481 0.021904 0.010505 -0.008536 -0.027790 -0.002618 -0.001664 0.001405 0.025654 -0.004283 -0.014433 0.005039 0.005052 -0.016861 0.010195 -0.006654 -0.006452 0.026969 0.002546 0.014148 0.022007 -0.003918 0.001144 0.018589 -0.006934 0.002776 -0.007432 -0.002801 -0.010047 -0.003059 0.002553 -0.009307 0.000632 0.012973 -0.009666 0.001634 -0.006519 -0.000475 
aachtopf 0.004085 -0.015533 0.013822 -0.000113 0.002180 -0.011253 -0.011523 -0.003584 0.003536 0.023995 0.003626 0.018339 0.019278 -0.005693 0.016181 -0.003773 -0.015812 0.000493 -0.002616 0.006888 -0.002821 -0.012277 0.012791 0.011270 0.005225 0.001690 0.001647 -0.000262 0.000296 -0.008242 -0.010101 -0.017183 -0.039711 0.008325 -0.006279 -0.000714 0.019132 -0.005062 -0.003661 -0.004789 0.007318 -0.002997 0.000630 -0.007057 0.003699 0.001539 -0.010717 0.001460 0.003517 0.016084 0.013755 -0.001490 -0.003315 0.021984 0.006569 0.003240 -0.013925 0.011534 0.001159 -0.003170 0.023647 0.020234 0.008965 0.002747 -0.004626 0.006794 -0.000543 -0.012340 -0.001813 -0.011062 0.029651 -0.005791 -0.009824 -0.017927 0.005015 -0.000458 0.001523 -0.006144 0.006503 -0.030041 -0.012880 -0.019118 0.008949 -0.004368 -0.003443 0.000955 0.005821 -0.001086 -0.018259 0.009463 -0.007294 -0.002191 0.007345 -0.010762 0.007459 0.009009 -0.016844 0.000790 0.012526 -0.020112 
aacm -0.003445 0.023586 0.016036 0.004979 0.007431 -0.012562 -0.005990 -0.007576 0.009585 0.041692 -0.006174 0.017393 -0.002092 -0.004498 0.008391 0.014454 0.014547 -0.002315 0.008652 -0.003102 0.000659 0.020012 -0.005084 0.000141 -0.009647 -0.007573 -0.002998 0.007508 0.007386 -0.017629 0.003409 0.010515 0.016923 -0.010489 0.005827 0.014753 0.003561 -0.020961 -0.000237 -0.003690 0.015667 0.000866 -0.002123 -0.013498 -0.008354 -0.008075 -0.003132 -0.000597 -0.004147 -0.014156 -0.006027 -0.002955 -0.011423 0.013312 -0.000609 -0.009032 0.000518 0.011328 -0.017727 0.010949 0.000951 0.011098 -0.010209 -0.011146 -0.003780 -0.000326 0.005317 0.005680 0.008787 -0.010152 0.017058 -0.002718 0.008660 -0.000231 0.042850 -0.007013 -0.007977 0.012270 -0.007320 -0.002009 0.001617 -0.010657 -0.009659 0.013235 0.015090 -0.009103 -0.002156 -0.002101 -0.023044 -0.020363 -0.003174 -0.002030 0.005178 0.003763 -0.016171 0.005515 -0.009592 0.010212 0.007490 -0.008182 
aacn 0.010490 -0.010451 0.015773 -0.015970 -0.025616 -0.010550 -0.004039 0.001469 -0.004940 -0.002448 -0.020032 0.004835 -0.003519 -0.024188 -0.003436 0.008458 -0.000337 0.007047 0.006982 -0.026095 -0.003307 -0.005643 -0.003615 0.003319 0.015775 0.002951 -0.000514 0.010721 -0.004872 -0.005815 0.006680 -0.002522 -0.006477 0.020647 0.004361 0.000532 0.003375 0.004777 -0.012895 0.015408 0.010292 0.002858 -0.018389 0.012859 0.003608 0.004955 -0.001856 -0.002780 -0.017676 0.001336 0.003846 -0.006665 0.012701 -0.009314 0.010038 -0.003358 0.014038 -0.002761 0.016656 0.029487 0.017623 -0.006074 0.001492 0.010475 0.012007 -0.006531 0.010233 -0.012184 0.005387 -0.005437 0.000409 0.011672 -0.001497 0.012952 -0.002038 -0.001655 0.000868 -0.014754 -0.007021 0.002678 -0.009775 -0.025968 0.009741 0.014654 0.008760 -0.006257 0.012763 -0.012050 0.026519 0.014053 0.014963 -0.006441 -0.000217 0.017562 0.007256 -0.010434 0.002096 0.006026 0.015161 -0.004803 
aaco -0.011332 0.004790 -0.022233 -0.022707 -0.006697 0.005215 -0.013499 0.025615 -0.011303 -0.010468 -0.020732 -0.020172 -0.018284 -0.013752 -0.012379 -0.007699 0.017292 -0.011026 0.011617 -0.016971 -0.006117 -0.021174 -0.005186 0.024113 0.010359 0.000872 0.003589 -0.022263 -0.010122 0.027609 -0.010422 -0.011180 -0.016680 -0.023407 -0.011751 -0.016065 -0.000844 -0.005557 0.004385 0.038305 0.013532 -0.002232 -0.013469 0.012980 -0.011414 0.021109 0.028905 -0.011778 0.014218 0.029799 -0.012600 -0.021073 0.032513 -0.000202 -0.002637 0.003049 0.000320 0.003225 0.001147 -0.014444 -0.003523 0.005709 -0.028127 0.007876 0.006224 -0.010076 0.014063 -0.019106 -0.020499 0.003570 -0.012945 -0.003868 0.019577 -0.015514 -0.017623 0.006025 -0.009856 -0.019319 0.025301 -0.003418 -0.005183 0.001479 0.015834 -0.031094 -0.021155 -0.005559 0.003090 -0.007883 0.001679 0.021378 0.020641 0.008310 -0.031007 0.004216 0.008017 -0.012425 0.007965 -0.005912 -0.002167 -0.006846 
aacom 0.004723 -0.017044 -0.012947 -0.008092 -0.011041 -0.012704 0.001906 -0.012919 -0.010669 -0.013863 0.029045 0.007592 -0.013811 0.011852 0.002443 0.010584 0.001903 0.006025 -0.007373 0.015677 0.030319 -0.009596 0.021465 0.003073 -0.012597 0.000584 0.001069 -0.012068 -0.015062 0.017434 -0.002511 0.013658 0.010265 0.008949 0.005330 -0.058005 -0.022875 0.000650 0.000785 -0.021520 -0.008058 0.010714 -0.023365 -0.008210 -0.009386 -0.025722 0.009348 -0.002684 0.005993 0.014265 0.010695 0.005239 0.005285 -0.017656 -0.010482 0.000589 0.000269 -0.024924 -0.004835 0.010456 -0.005776 0.017447 -0.013411 0.007834 -0.013360 -0.006632 -0.024730 0.008146 0.008847 -0.005868 0.018287 -0.012444 0.012887 -0.008642 -0.006853 -0.019522 0.001882 0.008148 0.008013 -0.009531 0.003559 -0.010848 0.020345 0.028484 0.010496 -0.004360 0.010706 -0.000306 -0.015391 -0.001211 -0.012502 0.022669 0.004056 -0.006943 0.006433 0.010444 0.010509 0.021251 0.025135 0.004206 
aacr -0.013751 0.002365 -0.018772 -0.005413 0.036578 -0.006381 0.006499 0.029758 -0.047148 -0.003037 0.002885 -0.030693 0.001205 -0.014914 0.004556 -0.003488 0.014006 0.009805 0.010603 0.020766 0.024135 -0.002417 -0.028001 0.006156 -0.020229 0.014418 -0.002392 -0.008871 -0.004454 0.000152 -0.011859 -0.016601 -0.031090 0.017463 -0.033243 -0.003592 0.009968 -0.011606 0.032350 0.021222 0.067268 0.033191 -0.019265 0.041733 0.002369 0.024201 -0.026037 0.008099 0.011120 -0.004866 -0.004983 0.000705 0.010632 -0.012358 0.001435 0.018844 -0.003952 0.063316 0.010613 -0.004582 -0.021908 0.028135 -0.001452 -0.007079 0.025608 0.003973 0.004058 0.022039 -0.010558 -0.012044 0.011049 0.017233 -0.000813 -0.017457 -0.018579 -0.007802 -0.030854 0.019533 -0.009948 0.033849 0.008725 0.023430 0.001916 0.022142 0.004554 -0.016141 -0.019004 -0.066828 -0.006850 0.020039 0.012980 0.016950 -0.011979 -0.002816 -0.004298 0.031788 -0.006449 0.023724 0.022223 -0.027164 
aacs 0.002570 0.008206 -0.017643 -0.000402 -0.010020 0.000385 -0.003327 0.013421 0.006570 0.000728 0.022713 0.006394 0.009279 -0.031809 0.015299 0.029131 -0.001583 -0.023155 -0.005456 -0.001146 0.003157 0.011926 0.031774 0.022313 0.016517 -0.012073 0.009538 -0.008638 0.006093 0.030333 -0.003532 0.014795 -0.009176 -0.006409 0.005455 0.001730 -0.001411 -0.010546 0.008595 -0.011066 0.014889 -0.025397 -0.002093 0.020434 -0.014025 0.006241 0.012566 -0.007194 0.002000 -0.016900 -0.005917 0.021989 -0.006853 -0.004558 0.016394 0.006364 0.008918 -0.008620 -0.011769 -0.031928 0.015189 -0.012967 -0.005416 0.025866 0.008956 -0.009655 -0.000001 -0.012805 0.009975 0.000391 -0.003760 0.014732 0.017058 0.005029 0.011261 -0.001349 0.003735 0.022695 0.019117 -0.009973 0.013585 0.012852 -0.022454 -0.002458 -0.009825 0.017025 0.004867 0.008812 0.009258 -0.010372 -0.005372 0.011367 0.014109 0.004978 0.010593 -0.005903 -0.003176 0.002109 -0.007499 0.014269 
aacsb 0.003630 0.027661 -0.010014 -0.012194 -0.012576 -0.035121 0.013541 0.022648 0.028418 0.017847 -0.012217 -0.036310 0.011982 0.025451 -0.008807 -0.024230 0.036512 0.010807 -0.002562 -0.024503 -0.065886 0.019194 -0.013388 0.038628 0.035030 0.019751 -0.011281 -0.007663 -0.000183 0.030097 0.000707 0.032641 0.010894 -0.003491 -0.003830 0.004622 -0.001212 0.023178 0.027668 -0.021242 -0.005468 0.015475 0.003062 0.012338 0.010539 -0.002241 -0.017463 0.019010 -0.008370 -0.030341 -0.007815 0.030834 -0.013959 0.027318 0.025472 0.001532 0.006582 -0.018847 0.004516 -0.030214 0.021594 -0.001503 -0.023188 -0.016327 0.019108 0.004412 0.060073 0.010576 -0.015334 0.001576 -0.004206 -0.013098 -0.017729 -0.004045 -0.002971 0.000040 0.017635 0.010593 0.021882 -0.000620 -0.000345 0.009895 -0.019732 -0.011675 0.054698 0.010698 -0.012991 -0.010902 0.007345 -0.028247 -0.001915 0.004863 0.026659 0.004954 0.002895 -0.018200 -0.027345 0.009058 0.001731 0.032367 
aacta -0.014386 -0.002375 -0.006339 -0.008520 -0.003540 -0.009714 -0.006345 -0.007301 -0.009736 -0.028012 0.033233 0.007912 -0.005996 0.001812 -0.026008 0.011045 0.003661 0.004703 -0.014976 0.005676 -0.014307 -0.022048 0.012473 -0.010622 0.013947 -0.031261 0.009033 0.006603 -0.024268 0.004038 -0.001435 0.009514 0.027784 0.005721 -0.013043 -0.028592 -0.020847 0.004319 0.020226 0.005583 -0.010847 -0.003024 -0.011023 -0.005959 0.021811 0.019845 0.020917 0.001636 -0.010045 0.029522 0.003829 -0.012301 -0.014946 -0.002342 0.002569 -0.010030 0.001838 0.009886 -0.012950 -0.015698 -0.009671 0.038080 -0.004767 0.009560 -0.008068 0.006071 -0.001823 0.009062 -0.004138 -0.028195 0.019329 -0.006434 -0.005912 -0.009368 -0.012422 0.013651 0.013233 0.004547 0.009173 0.030384 -0.006195 -0.002946 -0.010633 -0.006072 -0.021619 -0.019707 0.000090 -0.006075 -0.002239 -0.011571 -0.012258 0.019720 -0.006164 -0.015049 0.014150 0.000814 0.000007 -0.012479 -0.011186 0.021206 
aacu 0.000690 0.001259 0.006354 0.005609 -0.009315 -0.008418 -0.000085 0.010614 0.001607 -0.002726 -0.002996 -0.002106 0.017495 0.001360 -0.001278 -0.004046 0.009223 0.000028 -0.006323 -0.005061 -0.008201 -0.004157 -0.011548 -0.015924 -0.005473 0.003779 0.011433 0.000343 0.015022 -0.020252 0.011757 -0.007242 -0.011679 0.015984 -0.002013 0.015215 -0.006417 -0.005264 -0.013305 0.002033 0.004992 0.000086 0.011302 0.014904 0.017095 -0.002323 0.017630 0.007482 -0.001464 -0.011027 -0.010748 -0.005255 -0.004812 0.003893 0.006414 0.005684 0.005255 0.000696 0.005709 0.006181 -0.005726 -0.008015 0.006307 0.006437 0.002926 -0.011909 0.001467 0.018887 -0.002695 0.005825 0.005731 0.003024 -0.006018 0.000769 -0.001850 -0.003301 0.005279 -0.007730 0.015574 -0.010406 0.015556 -0.003825 0.004486 -0.013913 0.013648 0.003490 -0.001950 0.024553 -0.026964 -0.005366 -0.016094 0.003742 0.005642 -0.004844 0.017827 -0.006907 0.006282 0.008487 0.009621 -0.004060 
aad 0.010326 -0.006118 0.000671 0.003357 -0.003316 -0.008970 -0.006036 0.013268 -0.011078 0.010094 0.018138 -0.004832 0.005900 -0.014773 -0.009608 0.000733 0.014002 -0.012306 0.006125 -0.020572 0.008621 0.011972 0.007566 0.010219 -0.005058 -0.003638 0.000508 0.015260 0.008489 -0.010945 0.007131 -0.004300 -0.002241 -0.003925 0.015946 -0.000935 0.002264 -0.009248 0.007860 -0.006766 0.000394 -0.001938 -0.006574 0.007932 -0.006646 0.003646 0.004549 0.000293 0.008077 0.005790 0.012138 -0.011731 0.016949 -0.008657 0.010617 0.011442 -0.019447 0.003607 -0.005292 -0.008092 0.001049 -0.002020 0.010997 -0.016920 -0.000617 -0.024557 0.011494 -0.004630 0.002577 -0.004609 0.002099 0.000815 0.005265 0.009454 0.001664 0.013186 0.004444 0.009031 0.004264 0.000193 0.020275 0.001218 -0.007356 -0.006907 0.006372 -0.018512 -0.012915 0.003180 -0.001807 0.001321 -0.003871 -0.027433 -0.011748 0.001783 -0.017769 -0.000244 0.001479 -0.017113 0.001149 0.000745 
aadel -0.010730 0.003972 0.019049 0.025933 -0.011534 0.025030 -0.005547 -0.011153 0.001080 -0.014037 -0.024505 0.024517 -0.008986 -0.011276 0.011542 0.007354 0.003792 -0.019596 -0.033106 -0.017793 0.022284 -0.004088 -0.000950 -0.001572 0.005141 0.015746 -0.015295 -0.015821 -0.007269 0.015190 0.018011 0.017647 -0.003824 -0.002600 -0.004325 0.010994 -0.005345 -0.005314 0.004573 -0.008289 0.002610 -0.009222 0.025664 -0.009383 -0.015031 -0.020749 -0.013917 -0.006994 0.005871 -0.005408 -0.005517 -0.009601 0.001996 0.000511 -0.009557 0.009083 -0.000618 0.011992 -0.025996 0.014459 0.004861 -0.006055 0.000115 -0.011974 -0.002538 0.012803 -0.000152 -0.001845 0.000367 -0.006424 0.007650 0.001876 0.013454 -0.015235 -0.002970 0.009781 0.002917 -0.023873 0.006335 -0.019162 0.014187 0.000160 -0.000751 0.010278 -0.012143 0.015626 0.000314 -0.011591 0.001005 -0.003611 0.023164 -0.027264 -0.008681 -0.015104 -0.004350 -0.012852 0.013120 0.018644 0.016983 0.011956 
aadhe 0.000787 -0.012221 0.030085 0.011656 -0.011858 -0.005155 -0.012466 0.012889 0.006372 0.003894 -0.016947 0.026343 -0.000764 -0.002629 0.004101 -0.021684 -0.003483 0.008451 -0.005061 -0.006009 0.004221 -0.002497 0.014127 -0.010788 -0.018120 0.025730 -0.004093 -0.000625 -0.010441 -0.007126 0.002995 -0.010500 -0.032300 -0.034635 0.020891 -0.001102 -0.011088 -0.009057 -0.001159 -0.014945 0.010205 0.004112 -0.017433 0.021416 -0.004036 0.005426 -0.004510 -0.001691 0.005620 0.001749 -0.006950 -0.005940 -0.013726 0.018668 0.008304 -0.011931 0.002722 0.004733 0.005534 -0.005734 -0.016844 0.005526 0.007149 0.003720 -0.002923 -0.000674 -0.000956 0.003293 -0.011722 -0.007709 0.005473 -0.007083 0.014288 -0.000616 -0.001731 -0.022606 -0.001820 -0.015884 -0.011121 -0.006829 0.004881 0.009681 0.016753 0.003019 -0.013827 -0.006302 0.010073 -0.005583 -0.029985 -0.015379 0.001496 0.006591 0.002518 -0.004676 -0.004087 0.013509 0.017440 -0.013559 -0.014609 0.005854 
aadhi -0.003620 0.009083 -0.029786 -0.017833 0.019188 0.021283 0.003133 -0.014286 0.005976 0.003247 -0.003579 0.001567 -0.003544 0.004110 0.008175 -0.002019 -0.010916 -0.002730 -0.010362 0.001390 -0.007689 -0.011802 0.019705 -0.015296 0.008312 -0.010565 -0.013135 0.001539 0.000318 0.004796 0.007457 -0.003070 0.015540 -0.001712 0.009836 -0.012006 -0.003860 -0.007280 0.000828 -0.005280 -0.000799 0.003899 0.003145 -0.007652 0.009143 0.000203 -0.012867 0.001089 -0.007780 0.002122 -0.004532 -0.001665 0.007963 -0.000334 0.016438 -0.001586 -0.024265 -0.017502 0.010915 -0.012609 0.004719 0.000344 0.008806 0.012832 0.010758 0.003486 -0.006486 0.002993 0.006529 -0.000459 0.003312 -0.002590 -0.017968 -0.002883 -0.016882 -0.002474 0.007848 -0.000997 0.023263 0.008372 -0.001207 -0.013776 0.003930 -0.008235 -0.004891 -0.006522 0.011403 -0.006359 -0.006533 0.004314 -0.000299 0.002142 -0.004315 0.012771 -0.012109 0.003642 -0.025886 -0.012621 -0.010870 0.005087 
aadhunikotharathayude -0.000389 0.018203 -0.024996 0.014203 0.001719 0.001263 -0.005704 -0.007169 0.001791 0.008282 0.003737 0.009316 -0.001860 -0.007804 -0.003759 0.010586 -0.011756 -0.013175 -0.005458 0.004201 -0.015706 -0.010624 0.012769 0.000646 -0.000325 -0.007907 0.013058 0.003403 -0.008549 0.011351 -0.011396 0.005495 0.000448 0.009549 -0.005878 -0.003813 -0.001508 0.003243 -0.002388 0.007386 0.013098 0.004773 0.006745 0.002989 -0.006659 -0.017402 0.014067 0.000785 -0.008080 -0.010622 0.001816 0.005837 -0.001630 -0.009641 0.010195 0.003767 -0.017175 -0.005091 -0.003184 -0.002523 0.017330 -0.001043 0.007486 -0.008032 0.006820 -0.009894 -0.004510 0.004581 -0.006157 -0.009036 -0.007792 -0.011933 -0.004624 0.004043 -0.003300 0.009115 0.012279 0.006662 -0.013015 -0.003911 -0.007738 0.010219 -0.007710 -0.011501 -0.000397 -0.000516 -0.017962 0.002828 0.003746 0.012151 0.005463 -0.005580 0.007467 0.005194 -0.000689 0.013853 0.004777 0.022480 -0.008444 -0.021256 
aadipl 0.006181 -0.017845 0.027247 0.007163 -0.000509 0.039551 0.001160 0.017740 -0.015121 -0.037351 0.018619 0.033260 0.018222 0.004959 -0.001004 0.053524 -0.012638 -0.021711 0.013094 0.029210 0.018833 -0.011452 -0.007373 0.012630 -0.006720 -0.005799 0.033727 0.034266 -0.008426 0.007449 -0.005743 0.009460 0.024005 0.027185 0.049098 -0.013895 0.024588 -0.028260 -0.064724 0.030212 0.023878 0.018642 0.022136 -0.009897 -0.006679 -0.005365 0.005478 0.019763 0.014603 0.000077 -0.017041 -0.013043 0.019247 -0.010120 -0.010519 0.011666 -0.018919 -0.009394 -0.012158 0.024377 -0.001032 0.000271 -0.006988 -0.013527 -0.027462 0.013098 -0.048764 0.012906 -0.001560 -0.009295 -0.030316 0.019730 0.036021 0.003453 -0.005806 -0.015068 0.018646 0.007449 0.006485 -0.022834 0.043825 0.020055 -0.026356 0.009816 -0.003435 -0.005558 -0.025225 0.026697 -0.017575 0.012312 0.027723 -0.012524 0.008036 -0.005428 0.003359 0.022648 -0.015265 0.011915 0.016861 -0.034263 
aadmi -0.008905 0.000022 0.004313 0.001354 -0.007218 0.004407 0.008003 0.003643 -0.008327 0.017967 -0.000936 -0.014161 -0.004881 0.008458 0.026614 -0.006129 -0.026710 -0.018068 0.017783 -0.000493 0.017700 -0.004677 0.005873 0.011800 0.006430 -0.001768 -0.005999 -0.002512 -0.007281 0.003996 0.001080 0.016207 -0.006650 0.012602 -0.001124 -0.008735 0.005638 -0.005002 -0.009742 0.008435 0.009858 -0.009168 0.017798 0.003620 -0.002461 0.009227 -0.011986 0.009979 0.000507 0.003345 -0.017219 0.007942 -0.003317 -0.015463 0.000026 -0.007190 0.001684 0.005888 0.024445 -0.008564 -0.004049 0.003422 -0.001094 0.003119 0.002562 0.005592 -0.011735 -0.003985 0.023471 -0.005305 -0.002237 -0.002377 -0.007392 -0.010651 0.015317 0.027350 -0.010274 0.001139 0.014015 0.008528 -0.003724 0.000949 -0.001252 -0.001592 0.005556 -0.013134 0.007902 -0.005722 -0.013701 -0.009551 0.019560 0.007139 -0.015437 0.002104 0.012154 -0.001071 0.011447 -0.025092 0.001387 -0.024271 
aadorf 0.012534 -0.001594 0.006845 0.014936 0.003678 0.001647 -0.007815 0.009509 0.007596 -0.025336 -0.016610 -0.003636 0.008078 0.002995 0.009650 0.009245 -0.002235 -0.001695 0.003725 -0.004230 -0.010427 0.004087 0.014937 0.006634 -0.004506 0.028292 0.001087 0.017032 0.001526 -0.011860 0.017624 -0.007664 -0.003266 0.015303 0.001792 0.001644 0.010787 -0.019572 -0.016979 -0.004027 -0.021271 0.010976 0.022231 -0.014553 -0.006555 -0.001949 -0.019110 -0.002195 0.022348 -0.005822 -0.004066 0.000170 0.009234 0.013371 0.009310 0.005008 -0.007415 0.009617 0.001499 0.006944 -0.008307 0.019133 0.022319 -0.007335 0.006660 0.006039 0.008406 0.002904 0.012170 0.017102 -0.008717 -0.010401 -0.007647 0.013166 -0.018996 -0.015961 -0.009228 -0.009389 -0.018249 0.004431 0.015574 -0.019722 -0.007989 0.003624 0.013098 -0.007504 0.006870 -0.004233 0.016453 0.011687 0.009340 -0.015230 -0.009928 -0.009746 -0.010136 -0.004222 0.012388 0.013544 0.004913 0.026504 
aadorp -0.006310 0.004835 0.008068 0.009725 -0.009501 0.007145 0.003780 -0.008881 0.000917 0.007414 -0.014120 -0.009857 0.017581 0.003836 -0.020977 0.005058 0.001051 -0.019879 -0.000264 -0.015707 0.010617 0.012174 0.009646 -0.008034 0.003524 -0.001246 -0.002315 0.014566 0.006053 0.004127 0.018765 -0.015233 -0.017178 -0.009002 0.006333 -0.002871 -0.008830 0.002084 0.004735 0.003895 -0.005169 0.020580 0.018242 -0.001722 0.014260 0.004744 -0.007021 0.024653 -0.000133 -0.020542 0.016579 0.003498 0.002610 0.005392 0.013143 -0.002960 0.008175 0.005730 -0.006009 0.011016 -0.018275 -0.005629 0.007030 -0.011165 0.008223 -0.012258 -0.012879 -0.021116 -0.003714 0.007459 -0.019000 -0.008867 -0.021055 0.026317 0.011226 0.002805 0.013371 -0.004733 -0.007311 -0.004407 0.017531 0.001203 -0.002598 0.008930 -0.012353 -0.015523 -0.002269 0.000212 0.011915 -0.001584 0.007108 -0.003724 0.002461 -0.005548 0.004147 0.004960 -0.001255 0.000765 0.006151 -0.005043 
aadt 0.002538 0.014299 -0.010194 -0.000853 0.004977 -0.004312 -0.009806 0.001629 0.013427 0.013651 0.029867 -0.010064 0.016907 0.008632 0.006582 -0.012770 0.005731 0.003496 0.005633 -0.003575 0.005172 -0.001960 0.006754 0.016010 0.000127 -0.013359 -0.007929 -0.006680 -0.003577 0.007196 -0.004172 -0.002375 -0.000165 0.003727 0.019046 -0.008637 -0.005252 -0.010913 0.023542 -0.003709 -0.003002 0.021238 -0.000306 -0.005818 0.002560 0.021740 -0.000306 0.004864 0.013103 0.002962 -0.006644 -0.015004 0.002860 -0.005171 0.001418 -0.008995 0.001867 0.008616 -0.016374 -0.011959 -0.003281 0.006203 -0.000765 -0.004356 0.006132 -0.011474 0.014953 -0.010361 0.000483 -0.006352 0.012258 -0.007820 -0.003636 0.009206 0.001385 -0.014905 -0.012321 0.005938 -0.015364 0.007129 -0.005651 -0.011374 -0.012569 -0.009096 0.007711 0.007433 -0.011888 0.000257 -0.003836 -0.006730 -0.000144 -0.017551 0.009678 -0.003878 -0.001171 0.011004 -0.000410 -0.001990 0.036572 -0.002198 
aadu -0.001373 -0.001104 -0.002423 -0.012814 -0.011407 0.005367 0.001568 0.005764 -0.000389 -0.024371 0.010552 0.011139 0.005469 -0.014574 -0.003426 -0.001404 -0.025208 -0.001777 -0.001037 0.007038 -0.002038 -0.008915 -0.006475 -0.016640 -0.003635 0.000428 0.001775 0.003607 0.009020 0.014502 0.000255 0.011673 -0.009998 -0.009161 -0.006623 0.001359 0.000105 0.011699 0.015652 0.006616 0.008946 0.002985 -0.003468 0.000390 0.012237 -0.001026 -0.016154 0.024147 0.017382 -0.011167 -0.027814 -0.011687 -0.001843 -0.007072 0.003596 -0.000094 0.006439 -0.001950 0.000788 -0.007625 0.005604 0.007671 -0.007078 0.003504 0.003172 0.003282 -0.006157 -0.003564 0.007224 -0.001205 0.003892 -0.001054 -0.019978 -0.006699 -0.002836 -0.011126 0.005256 -0.005342 0.006796 0.000150 -0.006439 0.003237 -0.021592 0.006794 0.008371 0.013230 0.008067 -0.002312 -0.020405 0.008224 0.001860 0.005690 0.005682 -0.014865 0.012197 0.003673 0.007505 -0.000359 0.005150 0.004652 
aae -0.012107 -0.006892 -0.009226 0.000238 -0.017348 -0.005545 -0.004155 0.000760 -0.002827 -0.008041 0.009405 0.000203 0.008314 -0.002678 0.018992 0.017809 -0.019521 0.009076 -0.015563 -0.014235 0.015049 -0.016431 -0.011107 -0.006411 -0.006780 -0.000189 -0.009700 0.005000 -0.016580 0.022084 -0.014291 -0.012900 0.007870 -0.002544 -0.009749 0.027239 -0.003865 -0.011242 0.009817 0.026933 0.001320 0.005051 -0.014437 0.009075 0.013335 0.009831 0.001227 0.001142 -0.001738 -0.000971 0.023654 0.002718 0.009184 -0.011375 -0.003252 -0.007411 -0.011745 0.010492 -0.005953 0.009397 -0.021961 0.020472 -0.012967 -0.014242 0.003097 0.008329 -0.016179 -0.020440 -0.003906 -0.025085 -0.008554 -0.013111 0.008982 -0.022477 -0.011323 -0.001201 0.000269 -0.016155 0.006227 -0.024699 0.029753 -0.016121 0.014138 0.009342 -0.006611 0.012943 0.010398 -0.027627 0.008850 0.009498 -0.004267 0.010369 -0.002756 -0.016207 0.003362 -0.006006 0.015317 -0.022598 -0.019596 0.016908 
aaef -0.001952 0.001048 -0.009862 -0.019575 -0.001468 0.003002 -0.002562 -0.006030 0.008968 0.006723 0.012938 -0.007337 -0.003093 -0.018850 0.014622 0.002216 -0.002496 -0.008979 -0.006219 -0.007953 -0.002791 -0.003986 -0.000939 -0.011040 0.015084 -0.003364 -0.007065 -0.000598 0.029439 0.005741 0.004197 0.003049 0.010402 0.014763 -0.002043 0.006572 -0.001726 -0.010222 0.009367 0.014351 -0.012477 -0.014127 -0.009712 0.016925 0.013598 0.005017 0.009050 -0.006665 0.006999 0.005729 -0.006374 0.001294 -0.004908 -0.006797 0.000169 -0.004190 -0.005000 -0.005923 0.008210 -0.004357 0.000398 0.008656 -0.005022 -0.019149 -0.017097 -0.006706 0.015634 0.010125 -0.013580 -0.007014 0.005173 0.003317 0.004897 -0.012135 -0.016769 0.006855 -0.003456 -0.024032 -0.003815 -0.019678 0.010261 -0.005757 0.013083 -0.028402 0.018078 0.008051 0.005650 -0.007277 -0.014609 -0.005077 0.007858 -0.007628 0.019678 0.003426 0.000275 -0.009276 -0.004332 -0.027767 -0.008483 0.010799 
aaess 0.014995 0.004579 0.004069 -0.001559 0.001610 0.008603 -0.009844 0.010055 0.020617 -0.003479 0.001910 -0.009313 0.007229 0.009844 0.025469 0.002292 0.003454 0.003669 -0.003888 0.006119 -0.002782 -0.006072 0.002755 -0.003292 -0.001294 0.012956 0.000086 0.010071 -0.027299 -0.012864 0.012178 -0.018904 -0.008921 0.001328 -0.002835 -0.000033 -0.011453 -0.001256 0.014979 -0.007985 -0.006072 0.013773 -0.000679 0.001762 0.006523 0.003712 -0.009169 -0.006763 0.013262 0.000141 -0.011931 -0.010500 -0.014227 -0.004991 0.016899 -0.002684 0.012549 0.016166 -0.005633 -0.005066 0.001721 -0.001592 0.027637 -0.010458 -0.001923 -0.001755 0.004476 -0.002632 0.007523 0.003949 -0.004192 0.010234 0.025663 0.018099 0.015369 -0.002026 0.018299 -0.003039 -0.003877 0.010864 -0.005378 0.009250 0.014554 0.004873 -0.010406 -0.009103 -0.011983 0.002585 -0.000331 -0.004977 0.005828 0.015414 0.009030 -0.017088 -0.008899 -0.001240 -0.000409 0.008356 -0.003216 0.006506 
aaf 0.025467 0.038075 -0.015531 -0.004793 -0.022366 0.049249 0.025622 -0.021833 0.055954 0.012796 -0.083474 0.011803 0.018863 -0.048547 -0.020143 -0.029971 0.033949 0.019366 -0.008907 -0.032759 -0.007038 -0.074426 0.019179 -0.015699 -0.001083 0.035387 -0.010373 -0.016401 -0.036352 -0.020534 0.002536 0.002848 -0.030896 -0.001436 -0.004865 -0.010105 0.043901 0.014068 0.050498 -0.012397 -0.045402 0.011039 -0.001294 -0.000685 -0.034617 0.024558 -0.032972 0.007471 -0.052661 0.051656 0.024937 -0.014900 -0.001851 0.028994 -0.002620 0.011637 -0.003963 -0.051955 0.011894 0.014550 -0.014189 -0.007594 0.048914 -0.042225 -0.024542 0.026664 -0.004519 -0.036421 0.021984 -0.009365 0.022768 0.024951 0.025446 0.013125 -0.004631 -0.008676 -0.082637 0.023131 -0.033726 0.061200 -0.039996 -0.007635 0.003027 -0.025295 -0.003803 -0.011019 -0.016004 -0.000728 0.006263 0.009372 0.016544 0.033939 -0.066508 0.001358 0.008883 0.021355 0.014470 -0.020476 -0.009259 0.007602 
aafc 0.049697 0.015811 0.016832 0.046857 -0.040085 0.051816 0.053557 -0.001172 0.004208 0.004690 -0.000734 0.034230 0.007522 0.021951 0.012654 0.020130 -0.018040 -0.016893 -0.023423 0.021385 -0.007555 -0.015020 0.012199 0.001625 -0.039683 0.017006 -0.009509 0.034376 0.024803 -0.046505 0.007590 0.030261 0.021142 -0.021373 0.036961 0.024185 0.000710 -0.065014 -0.024827 -0.016655 -0.042948 -0.027126 0.033149 -0.034344 0.000682 -0.008562 0.023628 0.013409 -0.006454 0.017106 0.034967 -0.006412 -0.010429 -0.009146 -0.016862 -0.011194 0.005342 0.008218 0.029744 0.039371 0.023467 0.003653 -0.008697 0.005115 -0.006807 0.015872 -0.000836 0.043601 -0.000834 0.019438 -0.038457 -0.010284 -0.008127 0.019919 -0.021017 -0.017226 0.021199 -0.054201 -0.021686 0.000142 0.028260 -0.012469 0.022273 0.001061 -0.016286 -0.049911 0.010339 0.032787 -0.009315 -0.017007 -0.007098 -0.015007 0.038029 -0.002824 0.002377 0.038564 -0.061761 0.011420 -0.019884 0.030730 
aafco 0.001897 0.009847 -0.003697 0.008690 -0.028570 0.012620 0.001968 0.010147 -0.002383 0.013786 0.006817 0.008165 -0.002083 0.010796 -0.001192 0.007922 -0.015291 -0.001198 0.006965 -0.005546 0.025047 -0.007267 -0.005406 0.011190 0.011325 0.010839 -0.008233 -0.013436 -0.006839 0.001676 0.000530 -0.003256 -0.004875 -0.011618 0.002926 -0.019116 -0.004551 0.018785 0.005798 -0.000926 0.001812 0.005339 -0.015799 -0.007244 -0.009137 0.002020 0.005866 -0.011135 -0.004486 0.004007 -0.008908 -0.008791 -0.005038 -0.003405 -0.011006 -0.015444 -0.008275 0.022129 0.004242 0.002955 0.002317 0.001044 0.005239 -0.017103 -0.003949 -0.011390 -0.009224 0.002454 -0.015634 0.001999 0.012558 -0.011152 0.006054 -0.005263 -0.004407 0.023073 0.002976 -0.003035 -0.008859 -0.003910 -0.001466 0.017401 -0.007097 -0.004293 0.003587 -0.004750 -0.006519 0.005568 0.004787 -0.017022 -0.003460 -0.007463 -0.005425 -0.013731 -0.009867 -0.006861 0.012869 -0.008430 -0.002225 -0.007028 
aafia -0.016155 0.019145 0.009325 0.002742 -0.004941 -0.013001 -0.005289 0.003735 -0.002509 0.018891 0.001086 0.007377 -0.000306 0.004282 -0.004166 0.013445 -0.009231 0.003832 0.001348 -0.001457 0.005631 0.000460 0.016005 -0.001757 -0.008483 -0.013569 0.006278 0.002371 -0.007489 -0.014934 0.004998 0.006081 0.000457 0.001948 0.011212 -0.007975 -0.001819 -0.000419 -0.028451 -0.010361 -0.012849 -0.006184 -0.008641 -0.000443 0.000628 -0.020401 -0.005287 -0.007436 -0.000640 0.011322 0.010231 0.012003 0.008552 -0.003536 -0.002955 -0.004855 -0.015151 -0.003958 0.006267 -0.020697 0.011428 0.009863 -0.004432 0.009053 -0.007802 -0.008744 0.001708 0.010281 0.003584 0.002562 0.004510 -0.001527 0.009269 0.010404 -0.014177 -0.006742 0.010036 0.017214 0.003664 0.004099 -0.022474 0.001966 0.001580 0.003033 0.001140 0.007734 -0.002554 -0.000678 0.000803 0.005111 -0.020589 -0.005266 -0.005842 0.010812 0.006498 -0.014900 0.011642 -0.005855 -0.001013 -0.003082 
aafl 0.002989 0.004632 -0.001325 0.006983 -0.008448 -0.009788 -0.001184 0.002588 -0.004523 -0.019519 0.006970 -0.005960 -0.003540 0.001041 0.017631 -0.013370 0.000021 0.002465 -0.005202 0.019938 -0.009230 0.013065 -0.011416 -0.008333 -0.000611 0.005948 0.007598 -0.006605 -0.001119 -0.005424 0.013380 -0.009491 -0.008614 -0.008674 -0.003398 0.014011 0.010651 -0.003702 0.008247 -0.009782 -0.006264 -0.002606 -0.008876 -0.001386 0.024386 0.018174 -0.007847 0.007015 -0.014296 0.016487 0.007481 0.001848 0.002558 -0.005369 0.008644 0.009136 0.004337 0.003347 0.009694 0.006789 -0.001663 -0.009946 -0.002250 -0.011623 -0.002663 0.006796 0.015688 0.002221 0.002473 -0.002806 0.007214 0.007935 0.007071 0.001471 0.012963 -0.003974 0.014355 0.000493 0.002944 -0.000830 -0.009299 -0.014216 -0.004588 -0.011417 0.013889 -0.011342 0.002684 -0.017436 -0.016113 0.001577 0.004197 -0.008175 -0.016251 -0.005189 -0.004118 -0.002082 -0.015183 -0.001398 -0.014092 -0.005196 
aafnorthcentralindiana 0.006086 0.006500 -0.000006 -0.004187 -0.004678 0.001454 0.017072 0.014083 -0.007803 -0.008192 -0.004089 -0.008809 -0.002228 -0.000878 0.015223 -0.000104 -0.006721 0.004346 0.010839 -0.009568 0.011129 0.020460 -0.007867 -0.008969 -0.004418 -0.010447 0.004328 -0.000501 0.007328 0.003279 0.001000 -0.013658 0.001959 -0.005755 0.005880 -0.011289 -0.004010 0.010209 0.004384 -0.003890 -0.019381 -0.014567 0.005470 -0.001544 -0.004819 0.003327 -0.020470 0.000619 0.019361 0.001862 0.001525 0.000418 0.010212 0.017308 -0.006892 -0.005092 0.013465 -0.002660 -0.000157 0.023256 -0.008247 0.000881 0.016276 -0.010751 -0.021964 -0.020101 0.009893 0.005719 -0.004583 0.011095 -0.003059 0.013403 0.001685 -0.007329 0.011319 0.002114 0.008004 -0.014315 0.008811 -0.011286 -0.009659 -0.009545 -0.001560 -0.015992 0.001856 0.016847 0.012706 -0.008412 -0.013882 -0.010558 0.004031 0.005917 -0.010731 -0.012615 -0.004908 -0.019813 -0.005928 -0.011851 0.017745 0.016708 
aaftink -0.008749 0.009780 0.006993 -0.001306 0.008562 0.008537 0.022456 -0.003888 0.012768 -0.022978 -0.011331 -0.000807 0.004035 -0.003179 -0.001145 0.000252 -0.004009 -0.009347 0.005395 0.001958 -0.016590 -0.011988 -0.016711 -0.008939 0.004540 0.000460 0.000464 0.012025 -0.019179 0.007315 0.014561 0.003913 -0.003911 -0.007182 -0.001784 -0.012349 0.017389 -0.010440 -0.000526 0.003328 0.010659 -0.010480 0.018267 -0.013534 0.019342 -0.007249 0.005788 0.008832 0.004192 -0.013788 0.001757 0.002314 -0.002284 0.002764 0.007049 0.005543 -0.000556 -0.003381 0.002803 -0.008374 0.007373 -0.004978 -0.004429 -0.005029 -0.005492 0.004981 0.002658 -0.014720 -0.012945 -0.007995 0.012994 -0.002090 -0.004942 -0.003279 -0.006581 0.007713 -0.005660 0.006374 0.007363 -0.000039 0.003997 0.004187 0.008452 -0.001318 0.014339 0.008224 0.019291 -0.007194 0.006869 -0.001839 -0.005217 0.010665 0.014020 0.010628 -0.001856 -0.010094 0.005413 0.001440 -0.008907 0.003502 
aag -0.023708 -0.000934 0.043967 -0.018366 0.013890 -0.023035 0.006469 0.001020 0.009963 0.026745 0.020444 0.015665 -0.036288 0.002298 0.021012 0.020604 -0.025064 0.003848 0.013919 0.019405 -0.011716 0.019977 -0.011189 0.000951 -0.012574 -0.002510 0.008705 -0.000658 0.022277 0.022332 0.002242 0.010345 -0.034428 0.024312 0.013694 -0.032611 0.003339 -0.003007 0.029553 -0.021620 -0.031587 -0.024541 0.008505 -0.037773 -0.004912 -0.017532 0.023166 0.006530 0.013734 -0.000034 -0.004252 -0.066197 -0.033403 0.006089 -0.007269 0.003589 0.026225 -0.023889 -0.001255 -0.024527 -0.020784 -0.001649 0.013064 -0.007115 -0.025752 0.003511 -0.015244 -0.015104 0.026659 -0.014929 -0.010846 -0.022472 0.026180 -0.003045 -0.010902 -0.017519 0.010187 0.009822 -0.006176 0.009129 -0.004215 0.001565 -0.022553 -0.022828 -0.044892 0.003072 -0.011979 0.019272 -0.029322 -0.021725 0.011425 -0.013895 0.030996 -0.004656 -0.017642 0.021678 0.028929 -0.021979 -0.029377 -0.005721 
aagawin -0.008101 -0.026084 -0.010100 0.008379 -0.009102 0.003804 0.013497 -0.016950 -0.014393 -0.014768 0.016077 0.000744 -0.012370 0.004691 -0.007784 -0.002864 -0.032415 0.007328 -0.006302 0.000929 -0.008203 0.005533 -0.007106 0.000945 -0.009676 0.007512 -0.001873 0.010335 -0.001457 0.005167 -0.005497 -0.002113 0.007567 -0.008180 0.005743 0.000536 -0.002405 0.005964 0.001222 0.017298 0.009860 -0.001194 -0.005741 0.001129 -0.015840 -0.009011 -0.004441 0.003770 -0.007657 0.011402 -0.003277 -0.000416 0.010731 0.010399 -0.011152 0.002426 -0.010799 0.013312 0.001942 0.008901 0.001034 0.000047 0.015967 -0.000938 0.006357 0.010129 0.009772 -0.006410 -0.018925 0.028397 0.020320 -0.016006 0.014127 -0.006553 0.002169 -0.022744 0.005247 -0.003672 -0.008967 -0.003799 -0.008733 -0.000384 0.001862 -0.008654 -0.010260 0.005863 -0.002709 0.003489 -0.014995 0.011004 0.004866 -0.001797 -0.006671 0.013501 -0.013236 -0.002809 0.003607 -0.001991 0.000535 0.008081 
aage -0.002597 -0.005500 -0.002271 -0.001367 0.000731 0.001397 0.010823 0.002188 0.015209 0.000199 0.018662 -0.001612 -0.008854 0.000478 0.014858 0.022810 -0.000359 -0.013888 0.009636 -0.001209 -0.023135 0.023817 -0.017613 -0.008127 0.002986 -0.003171 0.016496 0.016543 0.001889 -0.006398 -0.010767 -0.006644 0.003880 0.000324 -0.017952 0.024077 0.016453 -0.025254 0.018799 0.005085 0.018691 -0.007649 0.016274 -0.006316 0.021391 0.011735 0.010688 0.011235 0.027038 0.003728 0.016164 -0.010213 0.001422 0.029721 -0.000966 0.003322 -0.005633 0.016881 -0.027637 -0.023041 -0.013428 0.015492 0.006686 0.000802 0.001294 0.031148 -0.011633 0.023066 0.009265 0.004393 0.014357 -0.021124 0.004647 0.017128 0.013542 0.008423 0.023379 0.029796 0.016888 -0.000370 -0.014811 -0.004290 -0.004922 0.015913 0.003992 -0.012614 -0.007611 0.001576 0.003340 0.009140 0.014181 -0.017199 0.019318 0.017543 0.013513 -0.007646 0.011265 0.016359 -0.020225 -0.000358 
aaghadi 0.010708 0.020126 -0.016144 0.007829 -0.002748 0.015586 -0.011253 0.011126 -0.014926 -0.004493 -0.007227 -0.005072 -0.002722 0.008800 0.015659 -0.003309 -0.004372 0.002810 -0.003019 0.015683 0.001035 -0.013794 -0.000785 -0.008139 0.002693 0.015365 0.017716 0.007559 0.007369 0.016603 0.006660 -0.019577 -0.018503 0.014314 -0.006107 -0.003756 0.015976 0.003886 0.001628 0.015169 0.010703 0.002034 0.016768 0.014190 0.017998 0.012936 -0.008367 -0.021335 -0.013421 0.013917 -0.012340 -0.002874 0.005203 0.008357 -0.004567 -0.004074 0.006616 0.002487 -0.005839 -0.009397 -0.006947 -0.010350 0.002177 0.005077 -0.006284 -0.007020 0.007432 -0.007704 -0.006837 0.007801 -0.012484 -0.013450 -0.002213 0.006795 0.007070 0.009915 0.003154 0.000483 -0.005858 0.009180 0.022676 0.014765 0.004260 0.011590 0.005333 -0.000398 -0.000776 -0.017673 -0.003362 0.002917 -0.005769 -0.000062 -0.005621 0.006154 0.003751 -0.006684 -0.019904 -0.006678 -0.007846 -0.009818 
aagpbl -0.020914 0.010973 0.010661 -0.003087 0.010170 0.007431 -0.000854 -0.019067 0.007298 -0.013935 0.011258 0.008663 -0.022103 -0.001952 -0.029447 0.002868 -0.011017 0.006020 0.004729 0.000208 0.006462 0.005603 -0.016292 -0.003770 -0.001293 0.019195 0.020006 0.017397 -0.008864 -0.005348 0.012307 -0.008924 0.004000 -0.007412 -0.020561 0.001370 0.004093 0.010354 0.003867 -0.004666 -0.003952 -0.006818 -0.002615 0.009866 -0.010168 -0.003689 -0.002502 -0.003027 -0.000516 0.001052 -0.008243 -0.009505 0.010950 -0.001977 -0.020089 0.002874 -0.007259 -0.015938 -0.006096 -0.007686 -0.001323 -0.000318 0.026254 0.005405 -0.016141 0.003573 -0.005002 0.006578 -0.000519 -0.026492 0.010730 -0.004603 0.003704 0.001548 -0.000717 -0.015965 0.011583 0.014670 -0.011631 -0.016914 0.004481 -0.008983 0.006679 -0.009258 0.002841 0.003014 0.001485 -0.015487 -0.009563 0.021408 0.004293 -0.002627 0.020958 -0.001429 0.006836 0.015403 0.001345 0.003299 -0.016187 0.002029 
aagps 0.023693 0.056079 -0.002228 0.024926 0.006080 0.038316 0.007046 0.022088 -0.005068 0.016209 -0.004757 -0.017464 -0.010385 -0.038771 -0.021099 -0.038440 0.005124 -0.015391 -0.018674 -0.008219 0.017735 -0.019252 -0.017174 0.024049 -0.009353 0.014256 0.028621 -0.017721 -0.006853 -0.017633 0.032472 -0.003481 -0.010060 -0.011438 0.019869 -0.025159 0.015225 -0.023123 -0.005394 0.005511 -0.006784 -0.001252 0.022060 0.005302 -0.014100 0.009956 0.001599 0.004751 0.012780 -0.022732 -0.029749 0.002094 0.003594 0.036372 0.034775 -0.011284 -0.003460 -0.004488 0.003595 0.006560 -0.024189 -0.012431 0.018373 -0.022557 0.004992 -0.002431 0.014739 0.013066 0.020291 0.007650 0.023324 0.008048 -0.034274 0.021163 -0.016505 0.005967 -0.028987 -0.005954 -0.021148 0.027817 -0.042352 0.018778 0.006715 -0.020075 0.012408 -0.016495 -0.004001 0.022980 -0.007192 0.013277 0.009649 0.019194 0.005329 -0.019952 -0.006938 -0.012224 -0.004629 -0.018356 -0.028078 -0.047224 
aagsp 0.008165 0.001267 -0.007299 -0.011419 -0.010925 -0.004493 -0.001980 -0.007558 0.003553 0.004317 0.007556 0.001371 0.008877 0.005009 0.001824 0.009940 -0.003051 0.011460 -0.011965 0.000811 0.014102 0.001215 0.000386 -0.002597 0.011182 -0.000068 -0.007510 -0.010211 0.003173 0.003708 -0.002715 0.010030 0.005992 0.013337 0.001612 -0.006535 0.006062 -0.009678 0.000410 -0.008313 -0.000340 0.010492 0.008779 -0.011729 0.019323 0.002257 -0.001860 0.012394 0.014957 -0.005286 0.016123 -0.014662 0.009020 -0.004054 -0.005481 -0.004093 -0.000598 -0.003742 -0.000187 0.004550 -0.011480 0.016634 -0.015357 0.015215 0.002433 0.009020 -0.001926 -0.022137 0.006725 -0.002282 -0.016970 0.005146 0.001161 -0.011599 -0.007879 0.004251 0.008551 0.001877 -0.000495 0.017494 -0.001269 -0.006238 0.019772 0.007045 0.007431 -0.009432 0.017797 -0.010138 -0.014038 -0.003077 -0.009457 -0.008107 0.002888 -0.002299 0.007624 -0.001000 0.000653 -0.000867 -0.003569 0.006102 
aah -0.008311 0.016901 0.003100 -0.006960 0.022154 -0.006690 0.003936 0.004063 -0.009482 -0.006204 -0.010429 -0.005647 -0.009451 -0.014133 -0.002896 0.001289 -0.001710 -0.000929 -0.007081 0.015750 -0.019023 0.012454 -0.005699 -0.032248 0.005821 -0.009533 0.011909 0.003366 -0.013162 0.012909 -0.006926 -0.004338 -0.006676 0.000601 0.000165 0.002127 0.005248 -0.000858 0.005384 0.013079 -0.007475 -0.001416 0.004016 0.013902 -0.026149 0.004087 0.007587 0.003375 0.009366 0.012430 -0.003707 -0.003357 0.002776 -0.007815 -0.002778 0.004811 0.001751 -0.014452 -0.008934 -0.015191 -0.005202 0.000841 -0.008398 0.022058 0.024188 0.003640 -0.016570 -0.000552 0.000337 0.002778 -0.017814 -0.000932 -0.015301 -0.015007 -0.014968 0.000445 -0.017842 -0.005071 0.003456 0.018324 0.011739 -0.004167 0.020049 0.013143 -0.014055 0.009075 0.001768 0.012783 0.022854 0.018232 -0.015653 -0.012773 -0.001647 -0.005685 -0.003129 -0.015918 0.011064 -0.020822 0.009141 -0.001882 
aahat -0.000408 0.011475 0.001459 -0.009088 0.020869 -0.010130 0.002089 -0.000721 -0.009839 -0.010832 0.015686 0.019265 0.004704 0.029044 -0.027435 -0.002253 0.022874 0.013651 0.004272 -0.003583 -0.008254 -0.025546 -0.006342 0.006976 0.004092 0.010914 0.006279 -0.016123 -0.003895 0.008975 0.021084 -0.026904 0.015107 0.009713 -0.020904 0.004787 0.011918 0.017277 0.008541 -0.005376 0.012576 -0.003137 0.014296 0.007296 -0.000187 0.009649 -0.009485 0.012501 0.016312 -0.022203 -0.010784 -0.030969 0.001846 -0.010607 0.016870 -0.010290 0.012145 0.007497 -0.001443 -0.021229 -0.000862 0.008785 0.005841 -0.004996 -0.016239 0.011053 -0.013997 0.003947 -0.005682 -0.009431 0.013344 0.016258 0.025733 -0.016499 -0.000605 0.006982 -0.009532 0.025954 -0.005778 0.013087 -0.001195 -0.005076 -0.019311 0.006300 -0.014936 -0.004040 0.001852 -0.018131 -0.003527 -0.007166 -0.002279 -0.010349 0.002712 -0.008085 0.008888 -0.003525 -0.006390 0.006314 0.008284 -0.014739 
aahhotep 0.004363 0.012615 0.008351 -0.006060 0.004967 -0.013403 0.006919 -0.004790 -0.035252 -0.000983 -0.017031 -0.013602 -0.013225 -0.004422 0.006580 -0.001171 -0.003354 0.009445 -0.011646 0.004515 -0.003947 0.013439 -0.003560 0.001285 -0.010412 -0.002669 -0.008812 -0.003739 0.007747 -0.008362 -0.004075 0.003358 0.004613 0.005790 0.004679 -0.004148 -0.015456 -0.001431 0.007979 0.003378 0.006272 0.004652 0.010725 -0.020134 0.002007 -0.008731 -0.011605 0.005288 -0.017285 -0.006914 0.005573 -0.021588 -0.000329 -0.016309 -0.002376 0.005437 -0.004633 -0.004542 -0.005097 0.006528 0.004767 0.005165 -0.001907 0.011960 0.023452 0.003654 -0.008108 -0.015477 -0.001244 0.012290 0.001152 -0.022318 -0.016789 -0.003346 0.010180 0.022080 -0.015076 0.003226 -0.007538 -0.001756 0.009916 0.008230 -0.003450 -0.004200 -0.004186 -0.006374 0.010912 0.028272 0.008322 0.008533 -0.014630 0.002846 0.013567 0.006087 -0.010643 0.014832 -0.016137 0.004428 0.009433 -0.011830 
aahk 0.004039 -0.003875 -0.017226 0.017187 -0.023118 0.009088 0.005674 -0.015779 -0.019164 -0.024469 0.020125 0.025985 0.002902 -0.006527 0.017656 -0.020714 0.017036 0.004628 0.011860 0.000631 0.001104 -0.042563 0.003858 -0.003341 0.019267 -0.012506 -0.013089 -0.021963 -0.022091 0.007763 0.032832 -0.009688 -0.003147 -0.000864 0.016088 -0.000870 -0.019031 0.014356 -0.003957 -0.009985 -0.000564 0.006526 -0.008772 -0.005209 -0.018114 0.011699 0.013454 0.016283 -0.020884 0.008533 -0.013379 0.028298 -0.032149 0.016028 0.004512 -0.022526 -0.000989 0.007863 -0.000924 -0.014391 -0.001934 -0.027450 0.004609 0.005297 -0.012415 0.003535 -0.001728 -0.013318 0.000119 -0.020069 0.001285 -0.003572 0.023834 -0.008805 -0.013883 0.017695 -0.050452 0.017386 -0.008348 0.041290 -0.029077 0.008797 0.008603 0.013362 0.005607 -0.006178 -0.015471 0.001300 -0.011478 -0.003985 -0.017687 0.007912 0.004741 -0.027538 -0.004240 0.036238 -0.001994 0.020873 0.014721 0.007589 
aahs -0.023832 -0.007996 0.001022 -0.008190 0.006731 -0.000331 0.016038 0.001653 -0.008505 0.003234 0.002950 0.013574 -0.023863 -0.001306 -0.012059 -0.004410 0.008689 -0.001110 0.008763 -0.004400 0.005584 0.013102 0.000134 0.005202 -0.006346 -0.006462 -0.000683 -0.026520 -0.016019 0.016069 0.003850 -0.001304 -0.010127 0.006452 -0.017579 -0.027923 0.013894 0.001353 -0.007662 0.001437 0.012395 0.001212 -0.011024 0.003978 0.009065 -0.004950 -0.020307 -0.008417 0.005794 -0.006796 0.008358 0.002690 -0.002796 0.013326 0.001919 0.025585 -0.018513 0.011869 -0.007302 0.018204 -0.011441 0.020479 0.001592 0.017443 -0.021314 -0.001463 0.009278 -0.007001 -0.004456 -0.017344 0.021818 0.008670 0.000514 -0.008970 -0.003587 0.001194 -0.009333 0.004603 -0.004261 -0.014952 0.005682 -0.005551 0.015538 0.004684 0.029684 0.013918 -0.005498 0.012347 -0.009816 -0.008549 0.016485 -0.004048 -0.008214 -0.019562 -0.009717 -0.031026 0.015125 0.008219 0.003171 -0.001367 
aai 0.003058 0.012927 0.015264 -0.003834 0.018355 0.030440 -0.010106 0.024411 0.012204 0.018510 -0.006719 0.004271 -0.012437 -0.021484 -0.030592 -0.002943 0.009559 -0.017579 0.010901 -0.015555 0.008072 -0.041845 0.011336 -0.000080 -0.010925 0.009797 -0.013698 0.000909 0.017281 0.012842 0.018069 -0.026565 0.015707 -0.003562 0.009258 0.011629 0.007679 -0.023776 0.012199 0.001203 0.011166 -0.000738 -0.003431 -0.003366 -0.021791 0.047589 0.042166 -0.018860 -0.014564 0.051811 -0.012287 0.012177 -0.010977 0.054096 0.044645 -0.014665 -0.039693 0.007626 0.015157 -0.017926 -0.030901 -0.018643 0.029690 -0.034709 -0.000224 -0.008865 -0.008101 0.017914 -0.019843 -0.009750 0.000420 0.001008 0.028865 0.003650 -0.026129 0.056697 -0.030387 0.014101 -0.016768 0.035778 0.037831 0.030074 -0.002159 -0.024443 -0.018092 -0.021018 0.001964 0.006654 0.008396 0.008544 -0.014469 0.016674 -0.026427 0.000647 0.042521 0.002678 -0.002920 0.004200 -0.017353 -0.008310 
aaib -0.006374 -0.011429 -0.011685 0.015883 -0.007857 -0.021338 0.013305 -0.003120 0.014231 -0.001213 0.003201 -0.010064 0.017756 -0.004262 0.012264 0.008011 -0.009092 0.011110 0.004855 -0.014679 -0.000052 -0.017373 0.026365 -0.024767 -0.009551 0.002974 -0.002595 0.005813 0.021523 -0.017465 0.004365 -0.007004 -0.025164 0.008233 0.027716 -0.025384 -0.001601 -0.003952 0.014350 0.003705 0.000234 0.003311 0.011895 0.015789 0.002121 0.008036 -0.004542 0.030484 -0.003675 -0.003669 -0.002308 0.003686 0.020042 0.004302 0.022068 -0.003838 -0.000576 -0.003363 0.010242 0.019508 0.018810 0.006418 0.016901 0.016378 -0.009814 -0.008848 -0.026721 -0.012283 -0.004250 -0.000523 -0.004254 -0.009275 0.009581 0.000131 0.015892 -0.019379 0.008987 0.010454 -0.012581 0.006417 0.005132 -0.007226 -0.019525 0.008118 -0.003921 -0.013142 0.023752 0.011708 -0.016488 0.006395 -0.001207 0.007387 -0.012380 0.016190 -0.015254 0.001675 0.000273 -0.008281 -0.009591 0.004471 
aaidd -0.021128 0.016850 -0.004528 -0.006020 -0.014749 -0.005402 -0.007838 0.012272 -0.021158 0.013487 0.010959 -0.001624 0.010469 0.008449 0.013885 -0.005360 -0.000771 -0.005203 -0.010369 0.008555 0.020036 -0.006759 0.001320 0.019684 -0.005669 0.001901 -0.000715 -0.016236 -0.013501 -0.002055 0.000752 -0.000972 0.002796 0.002149 0.007914 -0.011810 -0.009468 0.002505 0.002639 0.001472 0.002614 -0.009480 -0.005013 0.003191 -0.007381 0.004121 0.002605 -0.007637 0.001892 -0.004074 0.005977 -0.017517 -0.002778 -0.014486 -0.011104 -0.007767 -0.009567 0.000537 -0.002032 -0.015988 -0.007097 0.001065 -0.004625 -0.007103 0.019029 0.011154 0.010680 -0.014430 0.000610 0.014909 0.010734 0.005322 0.011755 0.013454 -0.007376 0.006707 0.003785 -0.011168 0.013011 -0.011896 -0.005815 0.007485 -0.007800 0.019318 -0.013065 0.013505 -0.003747 0.004740 -0.012722 0.003568 0.000008 0.007923 0.005740 -0.002099 0.001724 0.000181 -0.017340 -0.000708 -0.010634 -0.007920 
aaigem -0.010144 0.006139 0.022499 -0.000956 -0.004431 0.013850 -0.015441 -0.007774 -0.011829 -0.017742 -0.006485 -0.002024 -0.000612 -0.005813 -0.009399 0.002704 0.020014 0.001798 -0.008526 -0.011391 -0.000765 -0.012587 -0.003168 0.004355 0.003589 0.013236 0.002015 -0.026466 -0.026193 0.005806 -0.010305 0.001237 0.000243 0.008008 -0.006055 0.005820 0.001502 0.014765 0.007852 0.004851 0.006664 0.007152 -0.001068 0.004762 0.011669 -0.008154 -0.007430 -0.013832 0.005551 0.006432 0.030404 0.014151 -0.007567 0.008994 0.009928 -0.012360 -0.003376 0.004446 0.001919 -0.009296 0.003692 0.000068 0.008875 0.002377 0.001574 0.028578 -0.010200 0.021039 -0.010214 -0.004991 -0.011799 0.017154 0.025973 0.004422 -0.010016 0.003739 -0.007756 -0.004794 -0.007851 0.002989 -0.011567 -0.003825 -0.004940 0.011867 0.000226 0.002406 -0.005579 -0.003035 -0.000346 -0.004787 0.007836 -0.002416 0.003826 -0.000508 -0.013860 0.026222 0.002799 0.010307 0.002361 -0.016658 
aaj 0.000483 0.009329 0.015837 0.006255 0.009392 -0.003805 -0.023887 0.020511 -0.005238 -0.014778 -0.015377 0.011741 0.014502 -0.007662 -0.003911 -0.006569 0.005476 -0.012070 -0.007273 0.006516 0.005903 0.002367 0.025577 0.014630 0.026466 -0.016668 -0.012324 -0.005424 -0.004029 -0.005466 0.005497 -0.005456 0.024784 0.008530 0.005703 -0.020594 -0.006231 -0.023634 -0.020388 -0.023048 -0.022408 -0.000929 0.010655 0.012468 0.013234 -0.002199 0.006310 -0.016812 -0.003790 -0.003782 0.000427 -0.000934 -0.004489 -0.012206 0.000444 0.024207 0.009982 0.012497 -0.008378 0.010647 0.021610 0.009866 0.021856 0.006256 -0.004415 -0.010549 0.024150 0.013946 -0.015492 0.010690 -0.011439 0.001037 -0.011405 -0.000547 -0.017185 0.007769 -0.009655 -0.000689 -0.006502 0.018123 0.004891 0.007115 -0.015600 -0.004594 0.012764 -0.027427 -0.016487 0.020120 0.006400 -0.016537 0.019823 -0.002555 -0.007072 0.001205 0.026068 -0.022224 -0.008332 -0.009377 -0.007057 -0.003315 
aaja -0.020664 0.002109 -0.004934 -0.011785 -0.000222 -0.021452 0.008559 -0.005561 0.001148 0.005354 0.003865 0.004291 0.021866 -0.019288 -0.000607 0.027060 0.004346 -0.001594 -0.017990 0.022356 -0.010968 -0.017075 0.003084 -0.002191 0.001033 -0.002580 0.004564 0.001913 -0.002231 -0.004456 -0.014908 -0.011112 0.007057 0.008115 0.000124 -0.004239 -0.011822 0.005794 0.026733 -0.012391 -0.008467 -0.007065 -0.007806 0.005013 0.004254 0.001615 -0.003427 -0.000280 -0.003396 -0.003759 0.007683 0.010465 -0.002198 -0.008001 0.035128 -0.007659 0.005184 -0.000930 0.001147 -0.002079 0.010800 -0.009395 -0.006203 -0.006616 -0.015455 0.001343 -0.021782 -0.010095 0.003158 -0.016167 0.014928 0.003215 0.004189 -0.010432 0.019082 -0.010849 -0.005085 -0.003480 0.015734 -0.012976 0.012823 -0.002091 -0.009405 -0.008439 0.002325 0.003638 -0.003002 0.006958 -0.005395 -0.026544 -0.013937 0.014642 0.015602 -0.004951 0.000336 -0.002811 0.001036 0.006520 0.003948 0.019033 
aajkal 0.009821 -0.018021 0.009457 -0.024518 -0.005781 -0.004104 -0.010600 0.013624 -0.014578 -0.006651 -0.002174 0.000732 0.002290 0.010611 0.014648 -0.005914 -0.018103 -0.008511 -0.001532 0.003935 0.006221 0.003395 0.007135 0.001288 -0.001154 0.023316 0.001417 -0.015797 0.001564 -0.000115 0.023054 -0.003147 -0.034209 0.017824 -0.001986 -0.011540 -0.005955 0.000453 -0.004466 -0.006021 0.004469 0.012714 0.000473 0.008643 0.012006 -0.007514 0.009088 -0.014321 0.028399 -0.002080 0.001752 -0.014653 0.019202 -0.023049 -0.020805 0.020348 0.004277 0.023067 0.000205 0.021787 -0.004611 -0.003850 -0.025808 -0.013523 -0.032250 0.002836 0.002340 -0.014638 0.000016 0.001230 -0.007686 0.007869 0.012806 0.004165 0.008076 0.001156 0.005721 -0.009790 -0.009634 -0.012584 -0.003353 -0.003254 -0.014353 0.008980 0.000624 -0.014190 -0.000047 -0.016108 -0.019015 -0.011532 0.005422 -0.008359 -0.015383 -0.006704 -0.010448 -0.010418 0.006464 0.019066 -0.006880 0.009084 
aak 0.004066 -0.005771 -0.006414 0.003836 0.003601 0.008456 -0.017125 -0.010324 -0.007789 -0.019359 -0.009832 -0.009881 0.030349 -0.011538 -0.001117 0.005496 -0.003546 0.005075 -0.001418 -0.010110 -0.007337 -0.001941 -0.009028 -0.002992 0.012519 0.000859 -0.001894 -0.001014 0.021754 -0.000692 -0.001182 0.011695 0.005830 0.012862 0.008674 0.004148 -0.000125 -0.009551 -0.004572 -0.003168 -0.007161 -0.001098 -0.005123 -0.003145 -0.004557 -0.008081 -0.002893 -0.003500 0.002245 0.001493 -0.010024 -0.009725 0.011278 -0.003631 -0.006626 -0.000892 0.004119 -0.001648 -0.004926 0.004204 0.008791 -0.002055 0.006304 -0.018418 -0.014905 0.012415 0.002502 -0.003781 -0.007359 -0.018525 0.010409 -0.009646 0.001164 0.001652 0.001691 0.017941 -0.001504 0.012219 0.006408 0.000228 0.001204 -0.027409 0.016428 -0.003716 -0.002637 -0.002689 -0.013680 -0.000201 0.007573 -0.005909 0.005207 0.004406 -0.019611 -0.006072 0.008710 0.007527 0.010802 -0.004482 -0.018358 0.013916 
aakaam 0.013285 0.020238 0.006148 -0.009175 -0.001009 0.013929 -0.005526 0.008468 -0.005843 -0.013171 -0.001570 -0.001274 -0.007808 -0.001501 0.010128 0.001833 0.018080 -0.012437 -0.013279 0.000806 -0.011546 -0.010802 0.019508 0.015772 -0.000158 0.017714 -0.014955 -0.001940 -0.004292 -0.017671 0.005197 -0.002657 0.000823 0.015701 0.006487 0.003980 -0.005017 0.004352 0.012349 0.014017 0.016631 0.015982 -0.011005 0.010645 0.005434 0.006225 -0.028832 -0.002512 -0.011290 0.009288 0.003390 0.011826 0.002670 -0.018902 -0.014439 -0.005416 0.008974 0.008841 -0.007884 -0.004215 -0.000850 0.005557 0.004651 -0.010351 0.003814 0.000073 0.008189 0.002484 -0.003701 -0.008904 -0.005470 0.009023 -0.005491 0.012388 -0.007012 -0.025874 0.004788 -0.003542 -0.008952 0.008183 0.007056 -0.002991 0.002314 0.000426 -0.000576 0.003569 0.000703 -0.015429 0.007713 0.013388 -0.003333 0.010374 -0.024214 0.005492 -0.001191 0.007144 -0.006724 0.016132 -0.005918 0.005031 
aakafima -0.002288 -0.001321 0.004332 -0.007906 -0.000667 0.008626 -0.009386 0.002975 -0.012941 -0.000059 0.004816 0.009326 0.010268 -0.000717 0.003181 0.009651 0.002764 -0.009239 0.005091 -0.002805 -0.001397 0.004131 -0.007361 -0.010775 -0.017554 0.022357 0.011318 0.001046 -0.008816 0.009859 -0.009529 -0.007991 0.001208 0.015713 -0.000006 -0.002873 0.006078 -0.000618 -0.017297 -0.000205 0.004526 -0.008914 0.018293 0.002450 0.011174 0.016391 -0.002976 -0.004811 0.000703 0.017079 0.016505 0.000352 -0.003071 0.006422 0.000927 -0.009398 0.003770 0.020865 0.005229 0.008356 -0.008774 -0.000849 -0.000168 -0.003589 -0.007789 0.004062 0.011966 0.005912 -0.003703 0.017397 0.000331 -0.007238 -0.002328 0.003595 0.006411 -0.013278 0.008907 0.006402 0.011321 -0.002896 0.002140 -0.001244 -0.018585 0.015737 -0.010171 -0.002176 -0.020992 -0.001498 -0.002585 0.005999 -0.017540 -0.020628 -0.013968 0.007679 -0.012602 0.013075 -0.006671 0.012119 -0.006394 0.004764 
aakash 0.001932 -0.005480 0.007111 0.025370 -0.002522 -0.008337 0.018494 -0.010762 0.001940 0.001323 -0.008361 -0.012779 -0.008328 -0.014476 -0.008457 -0.001329 -0.000773 0.000514 -0.002704 0.017126 -0.012752 -0.020620 -0.001346 -0.002718 0.015683 -0.011997 0.005901 -0.013543 -0.005454 -0.003691 -0.004148 -0.008759 0.008705 0.012940 -0.009151 0.009097 0.014793 0.000367 0.009341 -0.002426 -0.000788 -0.013784 0.006900 0.018898 0.010835 -0.005906 -0.002970 -0.000490 0.002873 0.006042 -0.017294 -0.006939 -0.002122 0.001199 -0.007559 -0.011963 -0.009532 0.002087 0.002904 -0.001644 0.011635 0.008880 -0.009759 0.013332 -0.008501 0.018904 -0.000331 0.006839 -0.002730 0.018203 0.001823 0.008644 0.001308 -0.006007 -0.007805 -0.012596 0.005727 0.005298 0.006047 0.005571 0.012434 0.007015 -0.007760 0.004569 0.007084 0.005981 0.003352 -0.006669 -0.006045 -0.002823 -0.003382 0.003414 -0.008615 -0.005859 -0.011378 -0.014096 0.001068 -0.024758 0.004776 0.003981 
aake -0.014686 0.000589 -0.001522 -0.007276 0.000959 0.001284 0.008108 0.018846 -0.005889 0.008579 0.012303 0.013787 -0.000384 -0.006999 0.009603 -0.011893 0.000485 0.011071 0.009620 -0.000411 -0.016450 0.008610 0.001534 -0.017480 -0.004813 0.010480 -0.007212 0.025824 -0.009285 -0.012631 -0.007608 -0.010287 0.005163 -0.007515 0.025642 0.009610 0.014044 -0.005554 -0.002349 -0.004513 -0.011061 0.001888 0.005050 -0.010247 -0.032439 -0.019314 -0.001059 0.006370 -0.000572 -0.001157 0.007235 0.023234 0.010021 0.019411 0.010304 0.007726 -0.010035 -0.011791 0.007026 -0.006785 -0.003325 0.018451 -0.004398 -0.003077 0.006030 -0.014448 -0.004477 0.002177 0.016119 -0.019815 -0.007550 0.005504 0.009580 0.006070 -0.008619 -0.010806 -0.016789 0.017383 0.014992 -0.018478 0.000906 0.006406 -0.002941 0.008463 -0.011664 -0.012043 -0.015938 -0.008950 -0.003868 -0.000404 -0.020169 0.007671 0.002487 -0.025058 0.003584 -0.004786 0.000034 0.006486 -0.004263 -0.008577 
aaker 0.001755 0.018816 -0.010784 -0.012439 -0.019155 -0.004496 -0.003003 0.013870 0.007118 0.010822 -0.018515 0.005595 0.006079 -0.023941 -0.021575 -0.001884 0.000068 0.006438 -0.025902 -0.014573 -0.002305 0.001884 -0.015599 0.013098 -0.004745 -0.006473 -0.003307 0.005729 -0.003033 0.013667 0.002240 -0.004744 0.001480 -0.003204 0.006541 0.004789 -0.009059 -0.007386 -0.020421 0.008811 -0.002416 -0.004401 0.006506 -0.000928 0.015240 -0.016034 0.015814 0.017623 -0.005593 0.017256 0.003883 -0.006264 0.016104 -0.005342 -0.006207 0.004522 0.001949 -0.003644 -0.014684 -0.006232 0.001848 0.003697 0.011713 0.003702 0.001003 0.003110 -0.007542 -0.003554 0.010204 0.003418 -0.002227 0.007864 -0.008714 0.000145 -0.005887 -0.005536 -0.010987 0.004763 -0.001094 0.000652 0.005074 -0.012590 0.012137 -0.019955 -0.009847 0.003880 0.012347 -0.004620 0.005175 -0.007316 -0.009349 -0.008017 0.009588 -0.017073 0.002465 -0.005580 -0.014866 -0.014223 0.003698 -0.000300 
aakermann 0.004547 0.003659 0.008479 0.001555 -0.021326 0.003091 0.009476 -0.010131 0.001658 -0.010432 -0.000746 0.003518 0.002747 -0.015945 -0.013047 -0.018554 -0.022740 -0.012236 0.003788 -0.015915 0.004335 0.017084 0.001216 -0.008372 0.006515 -0.019746 -0.009159 -0.002813 -0.008945 -0.014706 -0.009113 -0.008030 -0.005290 -0.007129 0.004442 0.003718 -0.013323 0.012735 -0.006206 0.005423 0.003924 0.008227 0.002684 -0.007041 0.012578 -0.005648 0.006340 -0.003261 0.021556 0.000725 0.001437 0.007975 -0.005157 0.001072 0.008635 -0.005571 -0.007313 -0.004512 -0.000992 0.022929 -0.009344 0.012554 0.007215 -0.001049 -0.003602 -0.013129 -0.000309 -0.001437 0.008364 -0.007848 -0.001853 0.017018 0.009942 -0.006357 0.021830 -0.007817 0.014916 0.009432 0.005868 0.017538 -0.007911 0.015955 0.010941 -0.003292 -0.005352 0.008099 0.008985 -0.000034 0.002215 0.000995 -0.004033 0.007580 0.006669 -0.012290 -0.019148 0.006558 -0.002959 -0.011698 -0.010207 -0.001126 
aakhri -0.003175 -0.004678 0.009949 0.003034 -0.012204 0.019903 0.003352 -0.021118 -0.006280 0.004491 0.011181 -0.001192 0.003915 -0.005823 0.020981 0.007444 0.002279 -0.001949 0.000580 0.022018 0.020176 0.018960 0.009502 0.022033 0.009963 -0.024808 0.017935 -0.012177 -0.006876 0.005119 0.004649 -0.008259 -0.004982 -0.007917 -0.010603 0.001900 0.007093 -0.013938 -0.008339 0.002795 0.012229 0.007799 -0.007224 0.006647 -0.004803 -0.001439 0.002529 0.008942 -0.004217 0.008878 -0.011226 -0.000073 0.010104 -0.002166 -0.002929 0.003149 0.009316 0.023128 0.006897 0.020640 -0.010911 -0.010600 -0.003314 0.006833 -0.007188 -0.000498 0.022660 0.013000 -0.013998 -0.006544 0.011243 0.016146 -0.006519 0.004947 0.009829 0.012290 -0.002062 0.007149 0.005941 0.006844 0.003797 0.014354 0.001268 0.004694 -0.010931 -0.001418 -0.008136 0.000712 -0.011549 -0.013488 -0.006857 0.020610 0.013315 -0.007389 0.004616 -0.004322 -0.005544 -0.002864 0.000982 0.003743 
aakolonkadhi -0.002171 -0.003370 -0.004715 0.012056 0.003379 0.004337 -0.005822 0.015578 -0.013777 0.000811 0.016670 -0.016714 -0.013561 0.004674 0.001375 -0.009477 -0.011934 -0.002305 0.019151 -0.002762 -0.010966 -0.004819 0.018682 -0.001859 0.000423 0.007066 -0.010240 0.010826 -0.017357 -0.009556 0.011674 0.011676 -0.010664 0.020178 0.006521 -0.007250 -0.001484 0.009959 0.010639 -0.000635 -0.011307 -0.012220 0.008822 0.005859 -0.003854 0.000428 -0.002798 0.018535 0.002326 -0.000169 -0.004458 0.004453 0.026070 0.011988 -0.009635 -0.009469 -0.027837 0.004553 -0.000757 0.006657 0.015036 0.000667 -0.012004 0.003330 0.015640 -0.002999 -0.002553 0.010018 -0.004849 0.002968 -0.016349 0.007444 -0.000243 -0.006191 0.005535 -0.011823 -0.005995 -0.010883 -0.023154 -0.011041 -0.011034 -0.015771 -0.004171 -0.004374 0.003444 0.000935 0.007193 -0.001446 -0.011084 -0.000346 -0.005293 0.007017 -0.003336 0.001625 0.002997 0.018103 -0.007852 0.006977 0.000131 0.009737 
aaku -0.003087 -0.001275 -0.005944 -0.001821 0.012070 -0.001211 -0.007538 -0.003145 0.014079 0.006231 0.001591 -0.008721 0.003114 -0.007719 -0.006219 0.014735 0.012332 0.015919 0.001922 0.000404 -0.016490 -0.008329 0.007833 -0.008616 0.009290 -0.011987 -0.003602 -0.002597 -0.007213 -0.014661 -0.015612 0.008114 -0.011497 0.010855 0.004983 -0.015988 -0.010714 0.003356 0.003076 -0.006716 0.001470 0.005746 0.011612 0.001898 0.016874 -0.004107 0.017994 -0.009305 -0.007607 0.014588 -0.004968 -0.001934 0.012633 0.004472 -0.009533 0.001525 -0.005268 0.011824 -0.006763 0.003356 -0.021315 -0.008228 0.012206 -0.012160 -0.009477 -0.009156 -0.009398 0.007471 -0.001756 0.011408 -0.001552 0.012376 0.001414 0.008671 0.003086 0.006779 0.007126 0.003324 0.005776 -0.011806 0.001489 -0.006667 -0.005802 -0.013915 -0.018525 0.004415 0.005083 -0.009438 -0.014549 -0.000841 -0.004753 0.012955 0.001390 -0.026000 0.007262 -0.016263 -0.007175 -0.001553 -0.015680 0.000511 
aakwaluudhi 0.007713 0.004275 0.002223 -0.002412 -0.001326 0.001539 -0.001747 -0.009929 0.022856 -0.012573 -0.014556 -0.013260 -0.003106 -0.001835 0.013559 -0.005864 0.011186 -0.004294 0.005331 0.003938 -0.010207 0.009865 -0.000838 0.003155 0.010579 -0.010612 -0.007496 0.001950 0.002776 -0.011553 -0.005996 -0.012306 0.004634 -0.003008 -0.013658 -0.001366 0.011922 0.000035 0.002356 -0.002551 -0.004643 0.004551 0.005209 -0.001476 0.001912 0.001115 -0.010398 -0.000209 0.003026 -0.018466 0.016885 0.007334 0.009508 -0.007793 -0.000016 0.015658 0.008664 -0.011266 0.006265 0.013495 0.008160 0.018759 0.007131 0.000389 0.002579 -0.002627 -0.002746 0.002856 0.001063 0.007804 -0.006750 -0.006298 -0.011378 -0.005413 0.010369 0.005837 -0.016027 0.003548 0.009035 0.002520 -0.017215 -0.009171 -0.004708 0.009408 0.001950 0.014334 0.001453 -0.004507 0.009187 -0.001233 -0.000600 -0.002971 -0.019462 0.004696 0.016258 0.006724 -0.007130 -0.007628 0.000225 0.005018 
